solver_type L2R_L2LOSS_SVC
nr_class 2
label 0 1
nr_feature 302538
bias -1
w
-0.09410472338435924 
0.1911137335789738 
-0.1886877564348818 
0.09275306047925957 
-0.1750969647968026 
-0.2508505970652151 
0.05135060912909735 
0.05760584044329507 
0.287477785803462 
0.307628678608915 
0.06714549649415057 
0.2623395601687393 
0.2520001677676035 
0.1357957802062882 
-0.1122238519945276 
0.04196276905405537 
0.08380318672969957 
0.04775062818489138 
0.1455786190550929 
0.04449270463127618 
0.006879709060577787 
-0.02883636046299888 
0.09685893638627438 
0.05305140178672631 
-0.0575041728076334 
0.1405413074893502 
-0.1001888437189174 
0.001719585392331622 
-0.001149110059210602 
-0.001149110059210602 
-0.001149110059210602 
-0.001149110059210602 
-0.001149110059210602 
-0.001149110059210602 
-0.001100824307742648 
-0.1057925479374848 
-0.275060023636642 
-0.2915613787216698 
-0.1939237193846863 
0.9972411500289929 
0.08122773786864167 
0.09568431295708181 
-0.1048753586702936 
-0.01859546691936966 
-0.1791026405332877 
-0.06664649379173586 
0.05200837473806254 
0.05448803500356855 
-0.001149110059210602 
-0.001149110059210602 
-0.0009184642696170188 
6.736154035215487e-05 
-0.1897200084977447 
0.01884398370548281 
0.02533608649138159 
0.06753582386074386 
0.1756636553322816 
1.900203272885214e-05 
2.231801068565796e-05 
2.305880956718419e-05 
1.900203272885214e-05 
1.900203272885214e-05 
1.900203272885214e-05 
2.048270284802515e-05 
1.421200619470292e-05 
0.5254494237134425 
1.900203272885214e-05 
-0.1440578724562851 
1.900203272885214e-05 
1.421200619470292e-05 
1.900203272885214e-05 
1.900203272885214e-05 
1.900203272885214e-05 
1.900203272885214e-05 
1.900203272885214e-05 
1.900203272885214e-05 
1.900203272885214e-05 
1.421200619470292e-05 
1.421200619470292e-05 
1.421200619470292e-05 
1.421200619470292e-05 
1.421200619470292e-05 
1.421200619470292e-05 
1.421200619470292e-05 
1.900203272885214e-05 
0.0753049235552477 
-0.001099662243074251 
-0.001099662243074251 
0.250835522287828 
-0.01749467358514752 
-0.03628034598769563 
0.01513180879762028 
-0.05841901117830246 
-0.09175174883449978 
0.002912592978764082 
-0.2370299984476746 
-0.1007655645212796 
-0.1461707059752405 
-0.04408846545186566 
0.04713932473287238 
-0.04256464765066578 
0.1766798832944978 
0 
0 
0 
0.006928235790949261 
0.2031043583570465 
-0.05547635085056983 
0.1477392584134485 
0.02556447098786346 
0.09719093295922003 
-0.03357635688142354 
0.08168156766210433 
0 
-0.04153145848967185 
0.06169045704997513 
0.1114757912873447 
0.1015616119013415 
0.1270581901542419 
-0.2295956145827708 
-0.04153145848967185 
0.1174928159364489 
0.03861250619171248 
-0.07022150788744178 
0.006053808551565938 
0.08443027320652136 
0.004656751614961629 
-0.1268574950504834 
0.03526972934346633 
0.04494052838744377 
0.04143129519359357 
0.04940688081068329 
-0.05934850947132052 
0.1472961602919481 
-0.08020616729644717 
-0.1268574950504834 
-0.1268574950504834 
-0.01861109650677382 
-0.1268574950504834 
0.07322653363972777 
-0.04153145848967185 
-0.350898280974129 
-0.09982395146254482 
0.1544593151421126 
0.144614659303425 
-0.03898088049453454 
0.0004939016682085327 
0.0004939016682085327 
0.0004939016682085327 
0.0004939016682085327 
0.0141399024019536 
0.0004939016682085327 
0.0004939016682085327 
-0.000575539436185062 
0.0004939016682085327 
0.0004939016682085327 
0.0004939016682085327 
0.0004939016682085327 
0.0004939016682085327 
0.0004939016682085327 
0.0004939016682085327 
0.0004939016682085327 
0.0004939016682085327 
0.0004939016682085327 
0.0004939016682085327 
0.0004939016682085327 
0.0004939016682085327 
0.0004939016682085327 
0.0004939016682085327 
0.0004939016682085327 
0.0004939016682085327 
0.0004939016682085327 
0.0004939016682085327 
-0.2847020544231574 
0.0004939016682085327 
0.0004939016682085327 
0.0004939016682085327 
0.0004939016682085327 
0.0004939016682085327 
0.0004939016682085327 
0.0004939016682085327 
0.0004939016682085327 
0.0004939016682085327 
0.0004939016682085327 
0.0004939016682085327 
0.0004939016682085327 
0.0004939016682085327 
0.0004939016682085327 
0.0004939016682085327 
0.0004939016682085327 
0.0004939016682085327 
0.0004939016682085327 
0.0004939016682085327 
0.0004939016682085327 
0.0004939016682085327 
0.0004939016682085327 
0.0004939016682085327 
0.0004939016682085327 
0.0004939016682085327 
0.0004939016682085327 
0.0004939016682085327 
0.0004939016682085327 
0.0004939016682085327 
0.0004939016682085327 
0.0004939016682085327 
0.0004939016682085327 
0.0004939016682085327 
0.0004939016682085327 
0.0004939016682085327 
0.0004939016682085327 
0.0004939016682085327 
0.0004939016682085327 
0.0004939016682085327 
0.0004939016682085327 
0.0004939016682085327 
0.0004939016682085327 
0.0004939016682085327 
0.0004939016682085327 
0.0004939016682085327 
0.0004939016682085327 
0.0004939016682085327 
0.0004939016682085327 
0.0004939016682085327 
0.0004939016682085327 
0.0004939016682085327 
0.0004939016682085327 
0.0004939016682085327 
0.0004939016682085327 
0.0004939016682085327 
0.0004939016682085327 
0.0004939016682085327 
0.0004939016682085327 
0.0004939016682085327 
0.0004939016682085327 
0.0004939016682085327 
0.0004939016682085327 
0.0004939016682085327 
0.0004939016682085327 
0.0004939016682085327 
0.0004939016682085327 
0.0004939016682085327 
0.0004939016682085327 
0.0004939016682085327 
0.0004939016682085327 
0 
0.262290468685679 
0.140398139757183 
0.2535367288520811 
-0.1302760850505811 
0.2857203914306201 
0 
0.0008464450927189127 
0.02400645201227846 
0.02386197836850379 
0 
0 
0 
0 
0.03217349149012688 
-0.1638662519105329 
0.01735842103611935 
-0.1263388998694005 
0.1247999831067235 
-0.1346257417542257 
0.11883723039685 
0.1185304443696666 
0.2751035047329586 
0.118105727765664 
0.02163277490966703 
0.02158245924807412 
0.03746525022349874 
0.0002157188263623914 
0.0001969240130926972 
0.07177950673090708 
0 
0 
0 
0 
0 
0 
0 
-0.04212432280772514 
-0.1829071101019863 
0 
-0.1949158183917575 
0 
0 
0 
0 
0 
0.07679523158538108 
0 
0.185436867493869 
0 
0 
-0.07802378058638239 
0.001035457317723107 
0 
0 
0 
0 
0.1291237830119189 
-0.005114173101571774 
0 
0.1470473683628216 
-0.1855141961495392 
-0.001487903277913113 
0.2108303866186265 
3.261949503076018e-06 
0.0154008197343152 
3.261949503076018e-06 
3.261949503076018e-06 
3.261949503076018e-06 
0.005818530689700878 
0.06158263896179567 
0.0001499064878555905 
5.579995986122985e-06 
9.405779419105151e-06 
1.444998353139864e-05 
-0.5393551289878067 
0.2272158786803424 
0.1476216511378422 
0.05107185060391898 
-0.2167825869776469 
0.09014524029700123 
0.09014887553988461 
-0.1853654387714763 
0.1503465936165188 
0.1503747245988311 
0.1503465936165188 
0.134124930239239 
0.06037267527241932 
0.2948708136860964 
6.219637759860197e-08 
6.219637759860197e-08 
0.3498575633389502 
0.0002197017661240395 
8.847585901079877e-05 
0.006390845846451353 
0.06598177483610389 
0.09042643693030349 
-0.3089668493210858 
0.1842498022302239 
-0.0654773429356488 
0.1860523556203238 
0.07457558180435324 
0.07457558180435324 
-0.03660281526717638 
0.04506210799270739 
0.3986000260974335 
-0.09824081654119014 
0.163079067138285 
0.008628958276037262 
-0.3473300032172448 
0.04342826443070312 
-0.053103938477409 
0.05536414778373008 
0.3106568696487969 
-0.1291442601370285 
-0.1822121483151128 
-0.4002345519405169 
0 
-0.001095399775500927 
0.06711858463769017 
-0.1588568337193542 
0.02064063913839971 
-0.08676526334770172 
0.3742440615393602 
0.1653952989328128 
7.112500851830954e-06 
7.112500851830954e-06 
7.112500851830954e-06 
7.112500851830954e-06 
7.112500851830954e-06 
2.506732601346023e-05 
2.506732601346023e-05 
0.3124534648614986 
0.3645876349422907 
0.1040103125074945 
0.1378504964281419 
-0.03193322249370611 
0.131583277631123 
0.002260743053246818 
0.002214059268398061 
0.001899709432595254 
-0.02978382835598645 
-0.03281835358569904 
-0.02142437047176656 
0.03172861690252085 
0.002248690096416003 
-0.004329925125699122 
0.07457803151645763 
0.005158835337347761 
0.005158835337347761 
0.005158835337347761 
0.005158835337347761 
0.0009814915205963522 
0.005158835337347761 
0.005158835337347761 
0.005158835337347761 
0.005158835337347761 
0.005158835337347761 
0.005158835337347761 
0.005158835337347761 
0.005158835337347761 
0.005158835337347761 
0.005158835337347761 
0.005158835337347761 
0.005158835337347761 
0.005158835337347761 
0.005158835337347761 
0.005158835337347761 
0.005158835337347761 
0.00515441655159295 
0.005121472568487866 
0.0009814915205963522 
0.0009814915205963522 
0.0009814915205963522 
0.0009814915205963522 
0.0009814915205963522 
0.0009814915205963522 
0.0009814915205963522 
0 
0.2183639577221302 
0.0009907181502110908 
0.0009821320070771079 
0.0005091914939118091 
-0.02758441339911884 
-0.1143686749007078 
-0.1546591465979658 
0 
0.01177404502902888 
0.0001008966436046857 
0.0001008966436046857 
-0.0003758907928804842 
0.0001008966436046857 
0.0001008966436046857 
0.0001008966436046857 
-0.3150894289189308 
0.1334308555872769 
-0.2059972971888443 
0.1626261105167484 
0 
0 
0 
0 
0 
0.03871298436685578 
0 
8.495693482362177e-05 
-1.811891338163423e-06 
0.2395570052962995 
0.2968715232715426 
0 
0 
0 
0.1173345844819367 
-0.06814561827551897 
-5.395403040676101e-06 
0.07805741627886703 
-0.009287776823883695 
-5.395403040676101e-06 
0.1005156307210999 
0.02960816773849749 
-0.06526538574580468 
0.03159103365642887 
-0.002405797147870517 
-0.09729548978674864 
-0.05294308170893478 
0.1153658312860962 
0.05396615132691415 
0.04143451348065211 
-0.2136692849358959 
-0.1313517637884798 
0.1289379036282084 
0 
-5.395403040676101e-06 
-5.395403040676101e-06 
0 
-5.395403040676101e-06 
-5.395403040676101e-06 
-5.395403040676101e-06 
-5.395403040676101e-06 
-5.395403040676101e-06 
-5.395403040676101e-06 
-5.395403040676101e-06 
-5.395403040676101e-06 
-0.1576212713589355 
3.62151551797618e-05 
0.02998173110325333 
3.941283000731701e-05 
3.581208444318443e-05 
3.972652702775226e-05 
3.62151551797618e-05 
0.000249339576047831 
0.0002991622936343499 
-2.804540969850542e-05 
0.0009589306425458253 
0.1042569564334725 
-2.804540969850542e-05 
0 
0.0009489785877976484 
-2.485107421400573e-05 
0 
0 
0.001262850185653677 
0 
0.0002679225484513447 
-6.650706106981751e-06 
-2.804540969850542e-05 
0.0009589306425458253 
0.009977319569298386 
0 
0.0009606014535307723 
0.0009802611870468301 
0.0003133860722290726 
0 
0 
0 
0 
9.681876786976637e-05 
0 
0 
-2.018316996235569e-06 
0 
0 
0 
0 
0 
0 
0 
0 
0 
0 
0 
0 
0 
0.1016542194365177 
0.04754961349416 
-0.05325587545339606 
0.0557352348856903 
-0.09750445938547267 
0.02083195653313216 
0.005880450497594266 
0.004341778260832915 
-0.2336629613424426 
0.4675121799110813 
6.661182446255507e-06 
0.09369203770645294 
0.09435374963025367 
0.09424479710462687 
-0.004188784879106264 
2.108077114853372e-06 
-0.02838695593240419 
-0.04126170285215313 
0.2054456398434808 
0.002249610121249564 
-0.1945268740180127 
0.3550578797278106 
0 
7.323095380514518e-07 
1.754585615866337e-06 
-0.1506994230764923 
7.323095380514518e-07 
7.323095380514518e-07 
7.323095380514518e-07 
-0.07168973653215668 
0.09225053614062285 
-0.4757668932926905 
0.05890382968267698 
7.323095380514518e-07 
7.323095380514518e-07 
7.323095380514518e-07 
7.323095380514518e-07 
7.323095380514518e-07 
-0.05110326334421986 
-0.09567618156039409 
0.6195226295939944 
0.001757815607490333 
0.06969080795527315 
3.294686333148501e-06 
3.294686333148501e-06 
0 
0.002483059933780474 
0.102705388557919 
-0.301595969975837 
0.1640218559852298 
-0.5184550729103561 
0.2381616382939339 
0 
0 
0.09611113633120902 
0.3417063037331071 
-0.009748664445764504 
0.1979162114112527 
0 
0 
0 
1.440322059869684e-05 
0.1289533512065947 
0.04532360793607374 
0.2202503514970495 
0.1151257497064874 
0.03237390585272121 
0.03238399947105775 
5.263937650747289e-05 
5.263937650747289e-05 
5.263937650747289e-05 
5.263937650747289e-05 
1.771856317412433e-05 
1.965870864570044e-05 
1.771856317412433e-05 
0.0003189395023207588 
0.000310690295203384 
1.696683605562611e-05 
1.160825734866081e-05 
0.2522759009697753 
1.982660237421925e-05 
1.771856317412433e-05 
1.965870864570044e-05 
1.965870864570044e-05 
-4.918771747989416e-05 
1.631288464622763e-05 
1.771856317412433e-05 
1.771856317412433e-05 
1.965870864570044e-05 
1.771856317412433e-05 
5.854291818703004e-05 
-0.1319781566979149 
0.09285387773859098 
0.05041839382348208 
0.05041839382348208 
0.05131320772332099 
-0.1015349488605144 
-0.03890924398645776 
-0.1993557661171763 
-0.747410025491412 
0 
0 
0.1484802957374704 
0.0580373166747809 
0.2577663806305567 
0 
-0.3099198536914581 
0 
0 
0 
0 
0 
0 
-0.08770447491140233 
0.243144815489147 
0.1135295965667914 
-0.1154133923639722 
0 
0 
0.3313055054653997 
0.11785855277025 
-0.2362371207449223 
0.09452717139816606 
0.09452717139816606 
-0.03512428350500143 
0 
0 
0.02569072632602579 
0.204022004375642 
0.001010469603375608 
0.03395343367138534 
-0.1104406478116674 
-0.3310827504918009 
-0.3308731292722453 
0.001457945176608368 
0.3112108346494625 
0 
4.912474370116904e-05 
0.323222305647356 
5.404647396899107e-05 
4.912474370116904e-05 
5.781668588763648e-05 
0.1142089970876275 
4.912474370116904e-05 
4.912474370116904e-05 
4.912474370116904e-05 
4.912474370116904e-05 
4.912474370116904e-05 
4.912474370116904e-05 
4.912474370116904e-05 
4.912474370116904e-05 
4.912474370116904e-05 
0 
-0.09149387790708342 
0.001370689611155217 
0.001370689611155217 
0.001370689611155217 
0.001370689611155217 
0.001370689611155217 
0.001370689611155217 
0.002925138846729648 
0.3431432311824884 
0.1131309687411806 
0.002925138846729648 
0.001373971809581662 
0.002928421045156094 
0.001386358505137005 
0.002925138846729648 
0.1684754358369778 
0.01982484555619705 
0.0121559931076016 
0.002925138846729648 
0.002925138846729648 
0.002925138846729648 
0.002925138846729648 
0.001370689611155217 
0.002925138846729648 
0.002925138846729648 
0.001370689611155217 
0.001370689611155217 
0.002925138846729648 
0.002925138846729648 
0.001370689611155217 
0.002925138846729648 
0.001370689611155217 
0.6397746348101764 
-0.0002611233171859245 
0.02892772580222807 
-0.04400451472125844 
-0.04510399906504411 
0.3466160222872369 
0.100578624483495 
-0.02933646087913235 
0.1109542843222838 
-0.09738668591588069 
0.1044670394124219 
-0.0001140457854764797 
-0.0001106308679192424 
-0.0002611233171859245 
7.401893295651781e-05 
-0.0001140457854764797 
-0.0002611233171859245 
3.393324031891593e-06 
3.393324031891593e-06 
3.509810396296106e-05 
3.509810396296106e-05 
3.509810396296106e-05 
0.002782698837395722 
0.1122878375901699 
3.393324031891593e-06 
3.393324031891593e-06 
3.393324031891593e-06 
3.393324031891593e-06 
3.393324031891593e-06 
3.393324031891593e-06 
3.393324031891593e-06 
3.393324031891593e-06 
3.393324031891593e-06 
3.393324031891593e-06 
3.393324031891593e-06 
3.393324031891593e-06 
3.393324031891593e-06 
3.393324031891593e-06 
3.393324031891593e-06 
0.06975908950841933 
0 
0 
0 
0 
2.181518303639352e-05 
0.0002901351795874992 
0.008085920292820663 
0.2342818318624275 
0 
0 
0.006641391874942506 
0.0001208883666953483 
-2.804540969850542e-05 
-1.781146100983374e-05 
0.03801395366101971 
0.0083078788081236 
0 
0.003621918389238239 
-1.781146100983374e-05 
-0.001229966368455189 
0 
0 
-2.804540969850542e-05 
-0.0009056930212763709 
0 
0.2312063415605685 
0 
0.0007662775065276161 
0 
-0.009693685918388506 
7.303079681681055e-06 
7.303079681681055e-06 
7.303079681681055e-06 
7.303079681681055e-06 
0 
0 
0 
0 
0 
-7.867209721649066e-07 
-7.867209721649066e-07 
-7.867209721649066e-07 
-7.867209721649066e-07 
-7.867209721649066e-07 
-7.867209721649066e-07 
-7.867209721649066e-07 
-7.867209721649066e-07 
0.02871875351518437 
-7.867209721649066e-07 
-7.867209721649066e-07 
-7.867209721649066e-07 
-7.867209721649066e-07 
-7.867209721649066e-07 
-3.437324998785141e-06 
-7.867209721649066e-07 
-7.867209721649066e-07 
-7.867209721649066e-07 
-7.867209721649066e-07 
0 
-0.28079159641166 
-0.06215215184686752 
0.0277101279136842 
-0.2097475480335925 
-0.215130324147023 
0.1380187811486747 
0.03960228123279063 
-0.2582730024850877 
-0.09879374802838356 
-0.2203067112365578 
-0.1702410538805001 
-0.009717720079377266 
-0.07368025917782188 
-0.1395549699508365 
-0.1702410538805001 
-0.1702410538805001 
-0.1702410538805001 
-0.1702410538805001 
-0.1702410538805001 
-0.1701720082472395 
-0.1339203978808547 
-0.1395549699508365 
0.006917360034766289 
0 
0 
0 
0 
0 
0 
0 
0 
0 
0 
0 
0 
0 
0 
0 
0 
0 
0 
0 
0.1327004705127238 
0.01017692918883885 
-0.0009229112002729281 
0 
0 
-0.1050961025174823 
7.444699463233001e-05 
0 
0.1523452879841366 
8.355451208417275e-05 
0 
-0.1572979832578583 
0.04551865607943742 
0.04551865607943742 
0.04551865607943742 
0.0003510398306207193 
0.04989710826405834 
0.04745218654356444 
0.06434084809460952 
0.04519128386300706 
0.1673417233423942 
-0.3537968671211377 
-0.02011359252225703 
-0.1036975562962741 
-0.1543063869379777 
0.1085296290745712 
0.2057833540832178 
0.0698712825221818 
-0.5996556093544827 
0 
0 
-1.025000477295445 
0.2950715541199943 
0.2621283455445667 
0.2783551914629958 
-0.6280625257449918 
-0.02931551405575051 
0 
0.001430519453824833 
-0.1900590035010989 
-0.1538618012305477 
-0.1003982478799392 
0.0002500908078884161 
1.050451786176907e-06 
0.0009629355327818608 
0 
0.1224906898918132 
0.08191492915646516 
0.004698818380936055 
0.02605374148881609 
1.276741779853411e-06 
1.276741779853411e-06 
0 
0 
0 
0 
0 
0 
0 
0 
0 
0 
0 
0 
0 
0 
0 
1.429927163613721e-06 
0.006329459088433216 
-0.0002638652095246017 
0.0003459617690515682 
-0.0741964294351411 
-0.05630354388911203 
-0.07668152551546825 
-0.09467329938610745 
-0.03987446052987652 
-0.04395428833728365 
-0.1945263362682506 
-0.2290526625910942 
0.1551354181222943 
-0.2345697737968105 
0.01847209821564552 
-0.0715179916140245 
0.001536066517465468 
2.036816966884871e-06 
2.036816966884871e-06 
2.036816966884871e-06 
2.036816966884871e-06 
2.036816966884871e-06 
2.036816966884871e-06 
2.036816966884871e-06 
-0.1614528663973969 
0.06870088840471886 
-0.269213030141724 
0.06870088840471886 
0.06870088840471886 
0.06870088840471886 
0.06870088840471886 
0.07525986811980605 
0.004994422967438795 
0.006648530956373089 
0.1647173511214165 
-0.1525290571936482 
0 
0 
-0.01137858117566635 
0.2753106658668552 
0.3384373521921201 
-0.05803693065377825 
0.09491993887347719 
-0.4014030349806592 
0.3395902081520836 
0.3384373521921201 
0 
3.087304669148218e-06 
-0.0007360497543387206 
-0.02219771704265426 
-0.0819949595548642 
-0.0819949595548642 
-0.0819949595548642 
-0.0819949595548642 
-0.0819949595548642 
-0.0819949595548642 
-0.3030652823606806 
0.1001862180818343 
4.735540156667219e-06 
4.735540156667219e-06 
-0.003689610716074856 
-0.003689610716074856 
-0.001097246684777369 
-0.2779944694362413 
0.02844459494077129 
0.02844472541428254 
0.02853603091946039 
0.02705772846849362 
0.05814058032641463 
0.0001278129290880731 
0.0001275497751832439 
0.0001275497751832439 
0.0001275497751832439 
0.0001275497751832439 
0.0001275497751832439 
0.0001275497751832439 
0.0001275497751832439 
0.0001275497751832439 
0.0001275497751832439 
0.0001275497751832439 
0.0001275497751832439 
0.0001275497751832439 
0.0001275497751832439 
0.0001275497751832439 
0.0001275497751832439 
0.0001275497751832439 
0.0001275497751832439 
0.0001275497751832439 
0.0001275497751832439 
-0.1709208833750645 
9.55801432439593e-05 
0.1580585112460742 
-0.3298397649994103 
-0.232288694164822 
-0.03721447702764916 
-0.03721447702764916 
-0.03721447702764916 
-0.03721447702764916 
-0.03721447702764916 
-0.03721447702764916 
0.1712769168486381 
0.02021801663811856 
-0.07177640561439839 
-0.06559353690157686 
-0.06559353690157686 
-0.06559353690157686 
1.653117683552312e-06 
-0.007795884447708573 
0.3299658476885199 
0.01517364039275098 
0.0004232013298665316 
1.653117683552312e-06 
1.409639268754501e-05 
1.409639268754501e-05 
-5.718039254477679e-05 
-0.5862100075881733 
0.008378115396997694 
0.008398116876128483 
0.01424777869131264 
0.02049940399963339 
0.01514198807092522 
0.1013885055281993 
1.720098983767396e-05 
0.01533787120975366 
0.01535968972996016 
1.409639268754501e-05 
9.222737605091501e-06 
0.005265557907155442 
-2.566094140939582e-05 
-2.566094140939582e-05 
-0.000128669403598729 
0.001265016764827874 
-0.2894854062302962 
1.409639268754501e-05 
1.33120996897476e-05 
1.409639268754501e-05 
-2.566094140939582e-05 
-0.3247249325070505 
0.01462656264985641 
1.409639268754501e-05 
0.0004161969271490545 
1.526379873213122e-05 
1.409639268754501e-05 
0.003833743374403396 
0.005486011073789102 
1.409639268754501e-05 
1.659131167682959e-05 
-0.002945238430251995 
1.409639268754501e-05 
1.409639268754501e-05 
-2.566094140939582e-05 
1.409639268754501e-05 
1.409639268754501e-05 
1.409639268754501e-05 
1.409639268754501e-05 
1.409639268754501e-05 
1.409639268754501e-05 
1.409639268754501e-05 
1.409639268754501e-05 
-2.566094140939582e-05 
-3.004868589614645e-05 
-3.004868589614645e-05 
-2.566890556035155e-05 
0.0006198858033828345 
-2.566890556035155e-05 
0.03550834739291754 
-2.566890556035155e-05 
-2.566890556035155e-05 
-2.566890556035155e-05 
1.409639268754501e-05 
1.243637701970654e-05 
1.646770761128569e-05 
-1.340379254009065e-05 
-2.566094140939582e-05 
1.409639268754501e-05 
1.409639268754501e-05 
0.00418768320900774 
1.409639268754501e-05 
1.409639268754501e-05 
-6.297858842431536e-05 
1.409639268754501e-05 
-2.566094140939582e-05 
1.409639268754501e-05 
1.409639268754501e-05 
1.409639268754501e-05 
0.0002100245535436368 
1.409639268754501e-05 
1.409639268754501e-05 
1.409639268754501e-05 
0.02366626796281885 
1.409639268754501e-05 
0.1362268551832603 
0.0005301208041793406 
0.07305853831417664 
1.409639268754501e-05 
1.409639268754501e-05 
1.409639268754501e-05 
1.409639268754501e-05 
1.409639268754501e-05 
0.02754184875539352 
0.04267513213566475 
-0.2519686799942927 
0.0004795072999857553 
-2.566890556035155e-05 
-2.566890556035155e-05 
-2.607524923894728e-05 
-2.566890556035155e-05 
-0.0004599917794640617 
-2.566094140939582e-05 
-2.566890556035155e-05 
-2.566890556035155e-05 
1.409639268754501e-05 
-0.06394054639772236 
-2.566094140939582e-05 
0.0005875129073191138 
-2.566094140939582e-05 
-2.034975368413797e-05 
2.587047098108333e-05 
0 
0.008304411726631105 
0.008304411726631105 
0.008304411726631105 
0.01098935001660252 
0.008304411726631105 
0.008304411726631105 
0.008304411726631105 
-0.4106995392607766 
0 
0 
0 
0 
0 
-0.005584139938034615 
-0.1040901733536147 
0 
0 
0.0003528168499184141 
0.0003537514361529546 
0 
0.06390392726791748 
-1.781146100983374e-05 
0 
-0.281928299550065 
-0.1254491156968937 
0.06348117011668789 
-0.009561566292874531 
-0.009561566292874531 
0 
-0.3456464409532593 
0 
0.08625983568364848 
0.00197451173600694 
0.00197103359630889 
0.00197103359630889 
0.002067045728199115 
0.00197775391411447 
0.00197103359630889 
0 
0 
0.416250930740581 
0.0553118443309221 
-0.1562889938591527 
-0.1562763565919362 
0.05772691543628743 
4.69517077071619e-05 
0.004146688036605938 
0.01311770921961402 
0 
0.1340912565212818 
-0.2783902826333234 
0.01566988327535324 
0.01525359035037223 
0.01525359035037223 
0.01525359035037223 
0.1423301763243437 
-0.160669830714191 
0.01525359035037223 
0.01525359035037223 
0.1423301763243437 
0.1423301763243437 
0.01525359035037223 
0 
-0.05732417984041362 
-0.01703860160725462 
0 
0 
0 
0 
7.388869448475935e-06 
2.333084558525389e-06 
-0.0002495306493723044 
0 
0.05280408497573835 
0 
0 
0 
2.497015073004561e-05 
2.497015073004561e-05 
2.497015073004561e-05 
2.497244277599254e-06 
2.497015073004561e-05 
2.497015073004561e-05 
2.497015073004561e-05 
2.497015073004561e-05 
-0.1760109881439261 
-0.0006477971165366061 
-0.1412693102007089 
0.1996516254213927 
8.189319651175628e-06 
5.566131106879265e-05 
8.189319651175628e-06 
-0.5224903388191861 
-0.3968768908180533 
-0.2432168596798268 
0.003715182248075933 
-0.08488563443794747 
-0.126491564052683 
-0.08289693483699595 
-0.09294783627957803 
0.1081068367609178 
-0.0530443972460254 
-0.05823383399154678 
-0.09991472157292439 
-0.09991472157292439 
-0.06952993472323635 
-0.06952993472323635 
-0.09991472157292439 
-0.0817233959612461 
-0.09991472157292439 
-0.09991472157292439 
-0.09991472157292439 
-0.1021620199576656 
-0.09991472157292439 
-0.1002328608419007 
0.07490937122056508 
-0.06623499379449192 
-0.07368972130848668 
-0.05909738712232815 
-0.09991472157292439 
-0.09462668431414174 
-0.0998279551810636 
-0.09991472157292439 
-0.1001953955517339 
-0.09991472157292439 
-0.09991472157292439 
-0.09919451377675176 
-0.09070206880322612 
-0.08974259034235534 
-0.04691866253163278 
-0.1092824845123185 
-0.06722761836583667 
-0.09991472157292439 
-0.09991472157292439 
3.646040918900711e-06 
-0.2132254628410302 
3.646040918900711e-06 
-0.5228445381014138 
-0.4819685395643169 
-1.953018981283436e-06 
0 
2.779067730734834e-05 
0.3966436953895608 
2.500816340103422e-05 
0.02553866819830959 
5.561251161074874e-06 
2.77873725476076e-06 
0 
1.831818940392684e-05 
0 
0 
0 
0.06878252330061957 
5.809922949409719e-07 
0.08839513258228834 
5.809922949409719e-07 
5.809922949409719e-07 
-0.03625036640764404 
-0.03196413164702661 
-0.0009496434473753818 
0.3638578959987893 
5.809922949409719e-07 
0.02665525702035672 
4.963624805856844e-06 
-0.3719558231110118 
-0.0006076029960699817 
-0.000447706947242901 
0.0003130600138934408 
0.0003075828824254866 
-9.732514735740193e-07 
0.05401007154227202 
5.809922949409719e-07 
5.809922949409719e-07 
3.304642899211006e-05 
4.105602057360747e-06 
2.946439350447554e-06 
0.00031217706868297 
1.450119454668769e-05 
0.0003358595244448561 
-0.0006320270253507492 
5.809922949409719e-07 
5.809922949409719e-07 
5.809922949409719e-07 
5.809922949409719e-07 
5.809922949409719e-07 
5.809922949409719e-07 
5.809922949409719e-07 
5.809922949409719e-07 
5.809922949409719e-07 
5.809922949409719e-07 
5.809922949409719e-07 
5.809922949409719e-07 
5.809922949409719e-07 
0.003243515665250018 
0.0149336711010681 
5.809922949409719e-07 
5.809922949409719e-07 
5.809922949409719e-07 
5.809922949409719e-07 
5.809922949409719e-07 
5.809922949409719e-07 
5.809922949409719e-07 
5.809922949409719e-07 
5.809922949409719e-07 
5.809922949409719e-07 
5.809922949409719e-07 
5.809922949409719e-07 
5.809922949409719e-07 
5.809922949409719e-07 
0.00331642748513947 
5.809922949409719e-07 
5.809922949409719e-07 
-0.1455376802718479 
0.07371147772742134 
0.03101022498793385 
0.0461636737916711 
0.0182209580514642 
0.0182209580514642 
0.0182209580514642 
0.0182209580514642 
-3.001972307982074e-06 
-3.001972307982074e-06 
-3.001972307982074e-06 
-3.001972307982074e-06 
-3.001972307982074e-06 
-3.001972307982074e-06 
0.007468515380999033 
0 
0.01199033684322037 
-0.0002993543579572735 
0.02028647278930741 
0.01528556802466546 
0.01528556802466546 
0.02028647278930741 
0.01528556802466546 
0.01528556802466546 
0.01528556802466546 
0.01528556802466546 
0.01528556802466546 
0.01528556802466546 
0.01528556802466546 
0.01528556802466546 
0.02028647278930741 
0.01518283693094122 
0.01528556802466546 
0.01528556802466546 
0.02028647278930741 
0.01528556802466546 
0.01528556802466546 
0.01528556802466546 
0.01528556802466546 
0.01528556802466546 
0.01528556802466546 
0.02028647278930741 
0.01528556802466546 
0.02028647278930741 
0.01528556802466546 
0.01931883784728151 
0.02028647278930741 
0.01528556802466546 
0.01528556802466546 
0.03103723317852597 
-0.362381269293834 
-0.1065861406627394 
0.4787053403661041 
-0.5443018410882688 
0.1541821485463037 
0.03160393642047009 
0.03160393642047009 
0.02618401576820859 
0.2262296320226112 
0.02618458160672215 
7.811638754516844e-05 
-0.1121584754825884 
7.811638754516844e-05 
0.02155738322249621 
7.346222009746432e-05 
7.811638754516844e-05 
7.811638754516844e-05 
6.867329715970694e-05 
0 
0 
0.02814591062061029 
-0.2156332923908652 
-0.2144660787000011 
0 
0 
0 
-0.1962590574294962 
-0.05658421982812981 
0.04322068118841894 
0.1024921153894555 
0.2168684483785262 
0.1133313418898695 
0.004731440575245937 
0.05402087823905825 
0.2038569849754084 
-0.06804739735549235 
0.004731440575245937 
0.004731440575245937 
0.05248135485997531 
0.2357809929763041 
0.1219618163524394 
0.004731440575245937 
0.07295936188963723 
0.04075170194094935 
-0.0003459419041837187 
-0.0003459419041837187 
-0.0003459419041837187 
-0.0003459419041837187 
0.004732439735057655 
0.00488577760462998 
0.004731440575245937 
0.004731440575245937 
-0.0003459419041837187 
-0.0003459419041837187 
0.004774359546569751 
0.004731440575245937 
0.04322695111679739 
0.1591355985153584 
0.0006442126535657426 
0.02064118936223282 
-0.00134011547166058 
0.0003786451174946044 
0.0003609069587993549 
0.0003786451174946044 
0.0003786451174946044 
-0.2606177549401794 
-0.2606177549401794 
-0.2606177549401794 
-0.2639308767352959 
-0.1304487685975417 
-0.2606177549401794 
0.09811858171473212 
-0.4413403774232431 
-0.60333977971182 
-0.07611676846937783 
-4.658305585087631e-06 
-4.658305585087631e-06 
0.0001665478326524249 
0.1221454835858722 
-0.2451652211863238 
0.2935679492476353 
-0.07660762751928596 
-0.3932221071672736 
0.1037393443407886 
0.06985231231507227 
6.47394067085712e-05 
0.00338799690848475 
0.3231489293130921 
0.006776348706660042 
0.006776348706660042 
0.003491936704169501 
0.006531714665758948 
-0.2112251341853955 
-0.02160496861266089 
0.03931709026833494 
0.02410665364243627 
0.03931709026833494 
0.03931709026833494 
0.02158163386321805 
0.006861871388591842 
0.006787691621363562 
0.00678332668622847 
0.00678332668622847 
0.006819945390654883 
0.01150572758804649 
0.01150572758804649 
0.01150572758804649 
0.01210386418147555 
0.2456193940188305 
0.003491936704169501 
0.003491936704169501 
0.003491936704169501 
0.003491936704169501 
0.003491936704169501 
0.003491936704169501 
0.03555216660657905 
0.03555216660657905 
1.797577261946631e-06 
0.05656970862428765 
0.4084383450656112 
0.1318644906576428 
-1.093085387758995e-07 
-1.093085387758995e-07 
0.2071249096354749 
0.03281471339942901 
6.867368792122792e-07 
6.867368792122792e-07 
-1.093085387758995e-07 
-0.006954287069975779 
-0.006978830447108023 
0.01293523549977227 
-0.02762121491457204 
-0.02753575984315663 
0.09751738620331094 
-0.01922397968717015 
-0.009873207063731945 
-0.006954287069975779 
-0.0192218691043921 
-0.006972752279720899 
-0.105032716227976 
-0.01635475641071786 
-0.05506451158427059 
3.072002043004597e-06 
-0.0223498205893906 
0 
0 
0 
0 
0 
0 
0 
-0.1939773098982764 
-0.1939773098982764 
0.01485538270494491 
-0.1936776502100719 
-0.5682896951358151 
5.312743600662478e-06 
0 
0 
0 
0 
0 
0 
0 
0 
0 
0 
0 
0 
0 
0 
0 
0 
0 
0 
0.0007094499741789302 
0 
0 
0.04504899870532562 
-0.05706046920268136 
-0.01216134607234184 
0.05476492797836931 
-0.01256891030929622 
-0.0127617026739904 
-0.01256891030929622 
-0.04452191280099209 
-0.2457260941067038 
-0.00425896566728563 
0.2659463264677353 
3.780088601054011e-06 
3.780088601054011e-06 
3.780088601054011e-06 
-0.1115566486369834 
3.780088601054011e-06 
3.780088601054011e-06 
3.780088601054011e-06 
3.780088601054011e-06 
3.780088601054011e-06 
0.09361015824535701 
0.09361015824535701 
-0.08468355012190615 
0.09361015824535701 
0.07628937589295284 
0.09215273057415745 
0.06525876129238342 
0.2143550024476861 
0.09361015824535701 
0.3656222095102858 
0.09361015824535701 
0.09361015824535701 
0.01924208579142625 
-2.169690432302856e-06 
-2.169690432302856e-06 
-2.169690432302856e-06 
-2.169690432302856e-06 
4.375748100396323e-06 
-2.169690432302856e-06 
-2.169690432302856e-06 
-2.169690432302856e-06 
-0.008189846190834293 
-0.00829505020858738 
-0.0001585667770852592 
-0.006293905674387019 
-0.006293905674387019 
-0.006293905674387019 
-0.006293905674387019 
-0.006293905674387019 
-0.006293905674387019 
-0.006293905674387019 
0.3008259753905755 
0 
2.46146451468804e-05 
0.01431018800961017 
0 
0.02102346778154355 
0.1766840615213033 
0 
0 
0 
0 
0 
0.03041037303654779 
0 
0 
0 
3.96353101476291e-06 
3.96353101476291e-06 
0.004647392476361138 
3.96353101476291e-06 
3.96353101476291e-06 
-0.005449412715738213 
3.96353101476291e-06 
3.96353101476291e-06 
0.0001993664112827631 
0.02925837597657365 
2.137306056430703e-05 
2.137306056430703e-05 
2.137306056430703e-05 
-0.00370510035152779 
-0.00370510035152779 
-0.00370510035152779 
-0.003630204814628556 
-0.003630204814628556 
0.203004680194326 
0 
-0.004513287099277724 
0 
-0.004513287099277724 
-0.004513287099277724 
-0.004513287099277724 
-0.05990745807892955 
-4.810348290485189e-05 
0.1280344446288059 
0.119726060581234 
-4.860905490662185e-05 
-4.860905490662185e-05 
9.681637393956899e-06 
-4.860905490662185e-05 
9.681637393956899e-06 
9.681637393956899e-06 
-4.860905490662185e-05 
-4.860905490662185e-05 
-4.860905490662185e-05 
-4.860905490662185e-05 
-4.860905490662185e-05 
-4.860905490662185e-05 
0 
0 
0.01292764188857744 
0 
0.1954011547539589 
0.01474810033035588 
0.01839929028029125 
0.01839929028029125 
0.05607061975055933 
0.02241661741892798 
0.01839339422686119 
0 
0 
-0.05986528200899578 
0 
0.05854944924742758 
0.05854944924742758 
1.861183346289968e-05 
2.830659976084815e-06 
0 
0 
0 
0 
0 
0 
0 
0 
0 
0 
0 
0 
0 
0 
0 
0 
0 
0 
0 
0 
0 
0 
0 
0 
0 
0 
0 
0 
0 
0 
-0.00372038577114446 
0 
0 
0.006472875078260172 
3.526935373113758e-06 
3.526935373113758e-06 
3.526935373113758e-06 
3.526935373113758e-06 
3.526935373113758e-06 
3.526935373113758e-06 
0.01231763965235037 
0.03013155021641162 
3.526935373113758e-06 
3.526935373113758e-06 
0.0744449053441316 
0 
0 
-0.08468043607301991 
0 
0.06341200158611343 
0 
0 
0.2241649701273939 
0.06349356958674723 
-8.050982063187789e-07 
0 
0 
0 
0 
-8.050982063187789e-07 
4.094323836070135e-05 
0.0239740515886144 
0 
0 
0.0003635405381368048 
0.06320752976418799 
0.04190620348416286 
0 
0.07982171530591856 
0.01197818772094575 
0.01662018511658904 
-0.01109345654454004 
0 
0 
0 
0.001477851670033221 
0.001477941601240445 
0.001477941601240445 
0.001426234501816907 
5.163562267660485e-05 
3.371345688214604e-05 
1.534655203926114e-05 
1.534655203926114e-05 
0.2924531047220094 
-0.5202903298932484 
0.2922105392443133 
-0.02852746278988436 
-0.07713680116912359 
0.03653208526775036 
0.01566333376692226 
0 
1.940106792573748e-05 
0 
0 
0 
0 
0 
0 
0 
0 
-0.07017544548178689 
-0.1092110953677946 
-0.3368149619830165 
0.07674422852348173 
-0.1021101067790766 
-0.03967656503141413 
0 
0 
8.009467626988553e-06 
0 
0 
0 
0 
0.001464790500314372 
0 
0 
0 
0 
0 
0 
0 
0 
0 
0 
0 
0 
0 
0 
0 
0 
0 
0 
-0.1207685090063217 
0 
-7.014355857952653e-05 
0.03675206920885204 
-6.852531784517646e-05 
-7.014355857952653e-05 
-0.0119040154214579 
-0.2925033181901292 
6.840698095439517e-05 
6.840698095439517e-05 
6.624091560927495e-05 
-0.01515891671277242 
0.0003439051121236383 
-0.0002035536016749082 
0 
0 
0 
0 
0 
0.04606323872223357 
-0.06445611141481547 
-2.208342118871707e-05 
-2.208342118871707e-05 
-2.208342118871707e-05 
-2.208342118871707e-05 
0.0002255350233217846 
1.015835801646212e-05 
-0.01249086338672 
6.125933978218007e-06 
-7.653102993371618e-06 
0 
-0.0004121009026193501 
0.0416460615917792 
1.728598694313715e-06 
2.0247195234453e-06 
0.3073871671570624 
3.269823771697341e-05 
3.099735198848278e-05 
5.448119273897787e-05 
3.099735198848278e-05 
3.099735198848278e-05 
3.099735198848278e-05 
3.099735198848278e-05 
8.141326893136629e-06 
0 
-0.3337126600340561 
-2.697513524366308e-06 
-2.697513524366308e-06 
-2.697513524366308e-06 
-2.697513524366308e-06 
0.05435954694804161 
-2.697513524366308e-06 
-2.697513524366308e-06 
-2.697513524366308e-06 
-2.697513524366308e-06 
-2.697513524366308e-06 
-2.697513524366308e-06 
-2.697513524366308e-06 
-2.697513524366308e-06 
-2.697513524366308e-06 
-2.697513524366308e-06 
-2.697513524366308e-06 
-2.697513524366308e-06 
-2.697513524366308e-06 
-2.697513524366308e-06 
-2.697513524366308e-06 
-2.697513524366308e-06 
-2.697513524366308e-06 
-2.697513524366308e-06 
-2.697513524366308e-06 
-2.697513524366308e-06 
-2.697513524366308e-06 
-2.697513524366308e-06 
-2.697513524366308e-06 
-2.697513524366308e-06 
-2.697513524366308e-06 
-2.697513524366308e-06 
-2.697513524366308e-06 
-2.697513524366308e-06 
-2.697513524366308e-06 
-2.697513524366308e-06 
-2.697513524366308e-06 
-2.697513524366308e-06 
-2.697513524366308e-06 
-2.697513524366308e-06 
-2.697513524366308e-06 
-2.697513524366308e-06 
-2.697513524366308e-06 
-2.697513524366308e-06 
-2.697513524366308e-06 
-2.697513524366308e-06 
-2.697513524366308e-06 
-2.697513524366308e-06 
1.018104239828653e-05 
-0.1291804020551783 
-0.0665830060751513 
-0.1574062027790525 
-0.1087756466277352 
-0.3215885582508471 
-0.1049546037437569 
-0.005032463353752435 
-0.2430344726916906 
-0.1944039165403733 
-0.2410295253814377 
0.05996517176029779 
-0.6317218756146887 
0.06025096651939883 
0.06025096651939883 
0.05963885409351723 
-0.1858613633838044 
0.2711327851989287 
-0.296760995805989 
-0.2903418435251285 
-0.02856621420791222 
-0.9273811684228883 
0.1201574672346811 
0.1196105574055883 
-0.6833893503221885 
-0.636055761361254 
0.1531415178331132 
0.009146627559944973 
0.01541064808826266 
0.1355254956570018 
2.830445909537722e-06 
2.830445909537722e-06 
2.830445909537722e-06 
2.830445909537722e-06 
2.830445909537722e-06 
2.830445909537722e-06 
2.830445909537722e-06 
2.830445909537722e-06 
2.830445909537722e-06 
-0.001726590327084497 
2.830445909537722e-06 
2.830445909537722e-06 
2.830445909537722e-06 
2.830445909537722e-06 
0.004277945158894546 
8.152931709912426e-05 
2.830445909537722e-06 
2.830445909537722e-06 
0.001030407555176691 
2.830445909537722e-06 
2.830445909537722e-06 
2.830445909537722e-06 
2.830445909537722e-06 
2.830445909537722e-06 
2.830445909537722e-06 
2.830445909537722e-06 
2.830445909537722e-06 
2.830445909537722e-06 
2.830445909537722e-06 
2.830445909537722e-06 
2.830445909537722e-06 
2.830445909537722e-06 
2.278667082775797e-06 
2.830445909537722e-06 
-0.0007099762064649174 
2.830445909537722e-06 
2.830445909537722e-06 
2.830445909537722e-06 
2.830445909537722e-06 
2.830445909537722e-06 
2.830445909537722e-06 
2.830445909537722e-06 
2.830445909537722e-06 
2.830445909537722e-06 
2.830445909537722e-06 
2.830445909537722e-06 
2.830445909537722e-06 
2.830445909537722e-06 
2.830445909537722e-06 
2.830445909537722e-06 
2.830445909537722e-06 
2.830445909537722e-06 
2.830445909537722e-06 
2.830445909537722e-06 
2.830445909537722e-06 
2.830445909537722e-06 
2.830445909537722e-06 
2.830445909537722e-06 
2.830445909537722e-06 
2.830445909537722e-06 
2.830445909537722e-06 
0 
0 
0 
0.002083088263777509 
0 
0 
0.3523489064008306 
2.506732601346023e-05 
2.506732601346023e-05 
0.001099484343785607 
0 
0 
-2.220150075590488e-06 
0 
-0.04734732333985851 
6.339557290853727e-05 
-0.0001670298779522406 
0 
0 
0 
0 
0.106724291771553 
0 
0.02768962798428004 
0 
-0.04649435070455863 
0.05219491630286032 
1.835470207973592e-05 
0.0007197753307259256 
1.835470207973592e-05 
1.835470207973592e-05 
-0.0008314137708495798 
-0.0004182476986348594 
0.00179104054026538 
0.002258371319071333 
0.1978751400701703 
0 
0.00399771370334723 
0.00399771370334723 
-0.1326106924569854 
0.00399771370334723 
0.1607889699150932 
-0.1353809801105444 
-0.1353809801105444 
0.03700140323006677 
0.00399771370334723 
-0.0009985832605057935 
-0.0009985832605057935 
-0.0009985832605057935 
-0.0009985832605057935 
0.005708381122651341 
0.005708381122651341 
0.005708381122651341 
0.007588445364350095 
-0.1155275996355295 
0.005708381122651341 
0.005708381122651341 
0.005708381122651341 
0.005708381122651341 
0.005708381122651341 
0.005708381122651341 
0.005708381122651341 
0.005708381122651341 
0.005708381122651341 
0.005708381122651341 
0.005708381122651341 
0.005708381122651341 
0.005708381122651341 
0.005708381122651341 
0.005708381122651341 
-0.006558979715087082 
-0.006558979715087082 
-0.006558979715087082 
-0.006558979715087082 
-0.006558979715087082 
-0.006558979715087082 
-0.006558979715087082 
-0.03798231043638801 
0.2303129282100455 
0.00399771370334723 
0.00399771370334723 
0.00399771370334723 
0.00399771370334723 
0.00399771370334723 
2.294322115997852e-05 
0.03031083833350736 
0 
0 
0 
0 
0 
0 
0 
0 
0.05233728842953604 
0 
0 
0 
0 
0 
0 
0 
-0.3656200260345884 
0 
0 
3.190920852667326e-06 
0 
0 
0 
9.280468473286284e-07 
0 
0 
0 
0 
0 
0 
0 
0 
0 
0 
0 
0 
0 
0 
0 
0 
0 
0 
0.0001338829677977531 
8.216554127940953e-05 
8.216554127940953e-05 
8.216554127940953e-05 
7.976870964823095e-05 
-0.009568803434844543 
0.03504819369133689 
8.216554127940953e-05 
8.216554127940953e-05 
8.216554127940953e-05 
8.216554127940953e-05 
8.216554127940953e-05 
8.216554127940953e-05 
8.216554127940953e-05 
7.737256900149224e-05 
8.523405613854713e-05 
0.06636345357900036 
0 
-0.4657041007490836 
0 
0 
0 
0 
0 
0 
1.705036680616536e-06 
1.705036680616536e-06 
1.705036680616536e-06 
1.705036680616536e-06 
0 
0 
1.705036680616536e-06 
1.705036680616536e-06 
5.787984136049786e-05 
0.1361335578460934 
0 
0 
0.003320820415474799 
0.003303659733411493 
0 
0 
0 
0 
0 
0 
0.003303659733411493 
0.01982914538807155 
0.0002780309120184482 
0.003632359812758159 
0.0003088839649487916 
8.876409504938405e-06 
2.734629882005129e-06 
2.734629882005129e-06 
2.734629882005129e-06 
0.001465502402444021 
-0.09188221978340945 
-0.176768762289844 
-0.5210881694254389 
0 
0 
0 
0 
0.00481920774488221 
-0.03160210219109958 
0.0134613662370172 
0.01358715718471229 
0.0134613662370172 
-2.144890303474697e-06 
-2.144890303474697e-06 
0.01443615786310733 
0.003126485227644847 
-0.08275023236180558 
0.1500096476530943 
-2.144890303474697e-06 
-2.144890303474697e-06 
-2.144890303474697e-06 
-2.144890303474697e-06 
-2.144890303474697e-06 
-2.144890303474697e-06 
-2.144890303474697e-06 
-2.144890303474697e-06 
-2.144890303474697e-06 
-2.118086281056532e-06 
-2.144890303474697e-06 
-4.928346765111766e-06 
0.4622192105794892 
-2.144890303474697e-06 
-2.144890303474697e-06 
0.007022645872025082 
7.664056424562796e-06 
-2.144890303474697e-06 
-0.0007549575284710917 
-2.144890303474697e-06 
-2.144890303474697e-06 
-2.144890303474697e-06 
-0.001901044090231901 
-2.144890303474697e-06 
-2.144890303474697e-06 
-2.144890303474697e-06 
-2.144890303474697e-06 
-2.144890303474697e-06 
-0.0003697074056243881 
-1.829230442985208e-06 
1.245855604606491e-06 
-1.920860388372337e-07 
-1.920860388372337e-07 
-1.920860388372337e-07 
-4.527469233017233e-07 
0 
0 
2.758084201438359e-05 
0 
5.586159916577897e-06 
5.586159916577897e-06 
1.431710850416017e-05 
1.431710850416017e-05 
4.776159934493476e-05 
1.586884341061062e-05 
0.08295897906953492 
0.08563572928876663 
-0.00419328252395949 
1.183287018113847e-05 
0.01797276523864781 
4.776159934493476e-05 
2.825513003098163e-05 
2.260312362750104e-05 
0.1059971589069411 
0.06990188476507593 
0.008862154595446096 
0.008862154595446096 
-0.01436141268780618 
0.0915346525905049 
0.1091993960292731 
0.001012333576160462 
0.001012333576160462 
0.001012333576160462 
0.001012333576160462 
0 
0 
0.01950759741835072 
0 
0 
0.2718187652085258 
0 
-1.795501787993247e-05 
0 
0 
0 
0 
0.0006687149876477719 
-7.707498111185865e-05 
0 
0 
4.050383706664263e-05 
4.050383706664263e-05 
5.746422346333221e-05 
4.050383706664263e-05 
4.050383706664263e-05 
4.050383706664263e-05 
4.81183083763231e-05 
0.001312092566985879 
-0.0002803259114481167 
-0.0002808921645170819 
-0.0002858667358317213 
-0.0003430381817422219 
6.153815258703099e-05 
0 
0 
0 
0 
0 
0.03608385660720133 
0 
0 
0 
0 
2.151074987305893e-05 
0 
0 
0 
-2.388401452271439e-06 
0 
0.04490021385983169 
0 
3.046686378305213e-06 
0 
0 
0 
0 
0.05503824832530613 
0 
0 
0 
-0.4133737310162957 
0 
0 
0 
0 
9.509799975664564e-05 
0.05220681639065752 
0 
0 
0 
0 
0 
-2.315592610437814e-06 
-1.251654224893692e-05 
0 
0 
0 
0 
0.02495734035144902 
0.002370230962734044 
-1.781146100983374e-05 
0 
0 
0 
0 
0 
0 
0 
0 
0.009646201064600533 
-1.781146100983374e-05 
0 
0 
0.0006562891762833568 
0 
0.06012503394439505 
0 
0 
0.2303173389725284 
0.3017883186887547 
0 
0 
0 
0 
0 
0.02918814377275936 
0.4073092025950661 
0.08679764598739291 
-0.2002235106132159 
-0.2002235106132159 
-0.0001255249522083974 
0 
0 
0 
0 
0 
-0.0004287068818105919 
-0.0004287068818105919 
-0.3083276734329717 
-0.1367388944493123 
-0.3228094193463362 
5.466061601250282e-05 
0 
0 
0.0004729405131652988 
0.0005000258611065561 
0.001072347202904546 
-0.0009834640117286609 
-0.0009834640117286609 
-0.0009834640117286609 
-0.001052638798624213 
0.1051389560553229 
-0.002445715346240902 
-0.0009834640117286609 
-0.2720590695046786 
-0.2817306859702835 
0.06920271829224822 
-0.0009834640117286609 
-0.000979647765585293 
-0.0009834640117286609 
-0.0009587298299536511 
-0.0009834640117286609 
0.008173965569998146 
0.008173965569998146 
0.0001447246160079436 
0.0001447246160079436 
0.0001447246160079436 
0.0001447246160079436 
0.0001447246160079436 
0.0001447246160079436 
0.0001447246160079436 
0.0001447246160079436 
0.0001447246160079436 
0.0001447246160079436 
0.0001447246160079436 
0.0001447246160079436 
0.0001447246160079436 
0.0001447246160079436 
0.0001447246160079436 
0.0001447246160079436 
0.0001447246160079436 
0.0001447246160079436 
0.0001447246160079436 
0.0001447246160079436 
0.0001447246160079436 
0.0001447246160079436 
0.0001447246160079436 
0.0001447246160079436 
0.0001447246160079436 
0.0001447246160079436 
0.0001447246160079436 
0.0001447246160079436 
0.0001447246160079436 
0.0001447246160079436 
0.0001447246160079436 
0.0001447246160079436 
0.0001447246160079436 
0.0001447246160079436 
0.0001447246160079436 
0.0001447246160079436 
0.0001447246160079436 
0.08616373805719273 
-0.2002669316531848 
0.0001447246160079436 
0.0001447246160079436 
0.0001447246160079436 
0.0001447246160079436 
0.0001447246160079436 
0.0001447246160079436 
0.0001447246160079436 
0.000562533647181654 
0.0001447246160079436 
0.0001447246160079436 
0.0001447246160079436 
0.0001447246160079436 
0.0001447246160079436 
0.0001542261140883832 
0.0001447246160079436 
0.0001447246160079436 
0.0001447246160079436 
0.09791437384261992 
0.0001447246160079436 
0.0001447246160079436 
0.0001447246160079436 
0.0001447246160079436 
0.0001447246160079436 
0.0001447246160079436 
0.0001447246160079436 
0.0001447246160079436 
0.0001447246160079436 
0.0001447246160079436 
0.0001447246160079436 
4.476151238606659e-05 
0 
7.646628964691399e-05 
4.723421281719414e-05 
1.552943555634678e-05 
1.552943555634678e-05 
1.552943555634678e-05 
1.552943555634678e-05 
5.066613189465203e-05 
4.723421281719414e-05 
1.552943555634678e-05 
4.723421281719414e-05 
-1.596734136072149e-05 
0.1443593645697267 
-1.596734136072149e-05 
-1.596734136072149e-05 
-1.596734136072149e-05 
-0.002938060843831974 
0 
0 
0 
0 
-6.348447701663588e-06 
-2.186314534354106e-06 
-6.348447701663588e-06 
-6.348447701663588e-06 
5.911674969253989e-06 
0.1925562973582998 
0.0004840612608515516 
0.004274537476510524 
0.0004893087404006861 
0 
0.0007010106100767376 
0.0007010106100767376 
0.0007010106100767376 
0.04304319712737873 
0.0007010106100767376 
0 
0 
0 
-0.03078766609869993 
-0.03599768080153268 
0 
-2.895578193126987e-06 
-7.33432970243716e-06 
-5.663262117397782e-06 
-5.663262117397782e-06 
-4.605087578216874e-05 
2.061507223514522e-06 
0.1080903123904824 
0.1080903123904824 
-3.622181064635399e-05 
0.1889107413504157 
5.006138402830703e-05 
5.006138402830703e-05 
4.165803018416917e-06 
5.006138402830703e-05 
5.006138402830703e-05 
5.006138402830703e-05 
5.006138402830703e-05 
5.006138402830703e-05 
-5.663262117397782e-06 
1.189057235932922e-05 
1.189057235932922e-05 
1.189057235932922e-05 
1.189057235932922e-05 
1.189057235932922e-05 
1.189057235932922e-05 
1.901701867105445e-06 
-8.512885701148121e-06 
-0.1084361711312181 
0.1279767802754807 
-1.606009588123624e-05 
0.003582797815970784 
0 
0.09985631859792315 
0.1748787594738668 
0.01226736083773846 
0.01226736083773846 
0.01226736083773846 
5.17044613623478e-05 
5.17044613623478e-05 
2.343864405016835e-05 
0.1761126813567107 
-0.02921184513604923 
-0.03200762536856926 
0.01942115150040666 
0.03581133247028175 
-0.02921172718212923 
-0.03199172688820474 
-0.03199357407550017 
-0.02982518953437241 
-0.01043371915177753 
0.002717605177082354 
9.225271747710524e-05 
7.515779047012619e-05 
0.009224086023316988 
0.004402575168956506 
0.004402575168956506 
0.004402575168956506 
0.004402575168956506 
0 
1.306963277002835e-05 
0.004402575168956506 
0.004402575168956506 
0.004402575168956506 
0.004402575168956506 
0 
0.004402575168956506 
0.004402575168956506 
0 
0 
-0.0002507689001967232 
-0.0008164733749293425 
-0.0002507689001967232 
-0.0002728925673630672 
-0.0002507689001967232 
-0.0002507689001967232 
-0.0002507689001967232 
-0.0002507689001967232 
-1.608994100178637e-05 
4.470100313342352e-05 
-0.631196750864856 
0.2686121375249001 
0.03900554460733288 
0.05266399158824731 
0.1312979299039697 
0.05377510930853244 
0.05266399158824731 
0.05266399158824731 
0.05266399158824731 
0.05266837514918278 
0.05266399158824731 
0.05266399158824731 
0.05266399158824731 
0.06111347796587917 
0 
-0.01016788332518634 
-0.01016788332518634 
-0.01016788332518634 
-0.01016788332518634 
-0.01016788332518634 
-0.01016788332518634 
-0.01016788332518634 
-0.01016788332518634 
-0.01016788332518634 
0.01167670183144736 
0.002574404877463112 
-0.01016434260566819 
0.002574404877463112 
0.002693470421350553 
6.634085315435816e-06 
0.2949885245927701 
6.634085315435816e-06 
0.003210511692517485 
8.449807697372579e-06 
0 
0 
0 
0 
0 
0 
0 
0 
-0.3132910933039124 
0 
0 
0 
0 
0 
0 
0 
0 
0 
0 
0.0005004888290915784 
0.0005004888290915784 
0.4211951054767267 
-0.1944778755905126 
5.073183454238475e-05 
0.0001144891890713467 
0.0001144891890713467 
-0.01298368943689609 
0 
-0.3464153087997626 
-0.1970275121624177 
-0.1970209458842623 
-0.002552316668982613 
0.008281522211291407 
-0.9218685777698477 
-0.4756331802276472 
-0.4756331802276472 
0.07090200098039087 
-0.3070829477113594 
-0.3070829477113594 
-0.3070829477113594 
-0.3473811996536763 
0 
0 
0 
0 
0 
0 
-0.4387916269565116 
0.1507903208183164 
-0.002140472406933139 
-0.002140472406933139 
-0.002140472406933139 
-0.002140472406933139 
0.0001214935538455314 
0 
-3.37165158500224e-06 
0 
-1.336955756450627e-06 
0 
0 
0 
0 
-0.09540588290380121 
-5.292649479978679e-06 
3.225228126270832e-05 
3.225228126270832e-05 
0.001950672541691999 
3.225228126270832e-05 
3.225228126270832e-05 
0 
0 
6.880099825694947e-05 
0 
0.01277459380074542 
0.0003398292535827701 
0 
0 
3.225228126270832e-05 
3.225228126270832e-05 
0 
3.973547392366508e-05 
0 
3.225228126270832e-05 
0 
1.997435978371755e-06 
8.641930056639983e-05 
0 
0 
0 
0 
0 
0 
0.005464437018688619 
0 
0 
-2.813162097698918e-05 
0 
0 
0 
0 
0 
0 
0 
0 
0 
0.02201912133242527 
0 
0 
0 
0 
-0.0008961463573216055 
0 
0 
2.413196430533293e-06 
-2.879453049445393e-06 
2.413196430533293e-06 
0 
0 
-0.001470576991440739 
0 
-2.439925570832397e-06 
-0.1079524797124084 
0 
-6.799148154395986e-06 
2.088473091432503e-06 
0.09504186335785755 
-0.001723045696965358 
0.1211869639617927 
-6.766605455981813e-07 
-6.766605455981813e-07 
-6.766605455981813e-07 
-6.766605455981813e-07 
-0.0008915450739104636 
0 
0.02566931831920017 
0.03866523080776365 
-0.4136371482552031 
0.03866523080776365 
0 
-0.1198839357657797 
-0.1199785200312091 
-0.1165038901085049 
-0.03612283648705173 
0.008303503035894859 
0.05144484996102953 
0.05103705842045824 
0.004553720156422672 
0 
0 
0 
0 
0 
3.190920852667326e-06 
3.190920852667326e-06 
0 
0 
0 
0.08601206903351472 
0.001918172583095157 
0.001918172583095157 
-8.469360263788687e-05 
-8.469360263788687e-05 
-8.469360263788687e-05 
-8.469360263788687e-05 
0.0002297648728648784 
0 
0 
0 
0 
0 
0 
5.394981069962756e-06 
5.394981069962756e-06 
5.394981069962756e-06 
0.0002280845592136766 
6.803482537020546e-06 
0 
0 
0 
0 
0 
0 
0 
0 
0 
0 
0 
0.02595102196970151 
1.995562310260868e-05 
0 
0.3326916674935582 
0.01366868755017112 
0 
0.3944996313244071 
0.07253024717570221 
0 
1.132878629168232e-06 
1.132878629168232e-06 
1.132878629168232e-06 
0.00577980293194177 
-0.01065210975308109 
-0.006100425562062949 
1.132878629168232e-06 
-0.07426023160100552 
0.03106518616707523 
0.1186977343967394 
-0.0001654336660779321 
0.2022405396053324 
-0.002301517561126435 
-0.0001654336660779321 
-0.0001654336660779321 
-0.0001654336660779321 
-0.0001654336660779321 
-0.0001654336660779321 
-0.0001654336660779321 
-0.0002576729584168062 
0.004093797794612641 
-0.0001654336660779321 
-0.0001654336660779321 
-0.0001654336660779321 
-0.0001654336660779321 
-0.0001654336660779321 
-0.0001654336660779321 
-0.0001654336660779321 
-0.0001654336660779321 
-0.0001654336660779321 
-0.0001654336660779321 
-0.0001654336660779321 
0 
0 
-4.24247864632889e-06 
-4.24247864632889e-06 
-0.2146614729075486 
-6.509068019767266e-06 
1.93899758353368e-05 
-0.03964294162105388 
0 
4.217867440201315e-05 
4.217867440201315e-05 
4.217867440201315e-05 
4.217867440201315e-05 
4.217867440201315e-05 
3.367194918134644e-05 
-3.24391428226506e-07 
0 
2.87605882575277e-05 
2.456186274967258e-05 
0 
2.456186274967258e-05 
2.456186274967258e-05 
0 
0 
0 
0 
0 
0 
0.1495336223448812 
0 
0.01073972268289852 
-0.03036870150368937 
0.02229446080465291 
0 
0 
0 
0.02184591544979989 
0 
0 
0.003118329659994128 
0 
-0.01702076396473801 
0 
0.007961577892863961 
0 
-0.0826742659372406 
0 
0 
0 
0 
0 
0.001223581323080236 
-0.2968866950783974 
4.185428297378664e-05 
-0.001313375812570137 
4.268880149575033e-05 
4.185428297378664e-05 
4.185428297378664e-05 
4.185428297378664e-05 
4.185428297378664e-05 
0.00803181097822521 
0 
0 
0 
3.367194918134644e-05 
4.185428297378664e-05 
4.185428297378664e-05 
3.367194918134644e-05 
5.697104049543851e-05 
0 
3.367194918134644e-05 
0 
0 
4.185428297378664e-05 
4.185428297378664e-05 
4.185428297378664e-05 
4.185428297378664e-05 
1.537567385219431e-06 
4.185428297378664e-05 
0.01919181619387418 
4.185428297378664e-05 
4.185428297378664e-05 
4.185428297378664e-05 
4.185428297378664e-05 
2.87605882575277e-05 
2.87605882575277e-05 
-3.24391428226506e-07 
0.00164399869336972 
2.456186274967258e-05 
-3.24391428226506e-07 
0 
0.001121780972045219 
0 
0 
0 
0 
3.454656206046112e-05 
0 
0.06558108391079306 
-1.027062226662912e-06 
2.525055542243319e-06 
0 
0 
0 
0 
0 
0 
0 
0 
0 
0 
0 
0 
0 
0 
0 
0 
0 
0 
0 
0 
1.576611881554725e-06 
0.1376655762052536 
2.578356583917555e-05 
2.578356583917555e-05 
0.0002239446156334957 
0.0002239446156334957 
0.0002239446156334957 
0.0002239446156334957 
-0.05361639758804634 
0.0002239446156334957 
0.01301075268983372 
0.0002230983822983629 
0.0002239446156334957 
0.0002239446156334957 
0.0002239446156334957 
0.0002239446156334957 
0.004269242380115328 
0.0002239446156334957 
0.0002239446156334957 
0.0002239446156334957 
0.000226498067886704 
0.0002239446156334957 
0.0002239446156334957 
0.0002239446156334957 
0.0002239446156334957 
0.0002239446156334957 
0.0002239446156334957 
0.0002239446156334957 
0.0002239446156334957 
0.0002239446156334957 
0.0002239446156334957 
0.0002239446156334957 
0.0002239446156334957 
0.0002239446156334957 
0.0002239446156334957 
0.0002239446156334957 
0.0002239446156334957 
0.0002239446156334957 
0.0002239446156334957 
0.0002239446156334957 
0.0002239446156334957 
0.0002239446156334957 
0.0002239446156334957 
0.0002239446156334957 
0.0002239446156334957 
0.0002239446156334957 
0.0002239446156334957 
0.0002239446156334957 
0.0002239446156334957 
0.0002239446156334957 
0.0002239446156334957 
0.0002239446156334957 
0.0002239446156334957 
0.0002239446156334957 
0.0002239446156334957 
0 
0 
0 
0.1064299950989956 
0 
7.932371497510103e-05 
0.0001457794824555 
0 
-0.5002994559564302 
-2.445065003360481e-05 
-0.21894973760789 
9.064038348094352e-06 
-0.0001990368545396347 
-0.0001990368545396347 
0.000593206314909724 
0.000588307242269638 
-0.0001990368545396347 
0 
-0.6703370965521017 
0 
0.06712921536452515 
0 
0.01091021282296903 
0.01091021282296903 
0.09898155968362612 
2.187445693853204e-06 
2.187445693853204e-06 
0 
1.398996629307822e-05 
0.0002505683852626431 
0.0001958595281030951 
0.0002505683852626431 
0.0001958595281030951 
0.0002505683852626431 
0.0002505683852626431 
0.0002505683852626431 
0 
-0.9112290872666861 
-0.1328056897317704 
-0.1328056897317704 
-0.1328056897317704 
0.01665402325764138 
0.01665402325764138 
0.01665402325764138 
0.3074103038130299 
0.0166536204925022 
-0.0002870689924107085 
-0.0002671133693081001 
-0.0002671133693081001 
-0.0002671133693081001 
-0.0002671133693081001 
-0.0002671133693081001 
-0.0002671133693081001 
-0.0002671133693081001 
-0.0002671133693081001 
-0.0002671133693081001 
-0.0002671133693081001 
0.01660192345466888 
0.01663406763453877 
-0.07778576517416755 
-0.1312019118168771 
0 
1.461754737120559e-06 
-0.07916331763676417 
2.208708876980632e-05 
-4.854497060685633e-06 
-4.854497060685633e-06 
-3.293230844041086e-07 
5.148192025511901e-05 
1.104729134459226e-05 
3.041282786587656e-06 
1.419671750263635e-06 
1.419671750263635e-06 
1.419671750263635e-06 
1.419671750263635e-06 
2.65479005975046e-05 
1.419671750263635e-06 
1.419671750263635e-06 
1.419671750263635e-06 
1.419671750263635e-06 
0 
0 
0 
-5.742590501248383e-05 
2.421450893961217e-05 
3.28584692988302e-06 
0 
0 
-0.03120611081614984 
-0.02393866699416841 
-0.02158158564927916 
0.0002583558781268751 
0.0002583558781268751 
0.131947649477003 
0.0002583558781268751 
-0.000163262548631344 
-0.001453041884414969 
4.126057703289051e-06 
0.02167579999879722 
0.150647779783145 
-0.0001623641781776986 
0 
0 
0.06213944078809096 
0.07841355589605929 
0.05201922886321882 
0.05045106348059813 
0 
0.1638344977477185 
0.006932365388216783 
0.01428747134996564 
0.01428747134996564 
0.01428796628393338 
0.01326478435947751 
0.006928235790949261 
0.06037389991813137 
0 
1.462092864913687e-05 
7.008846337461425e-06 
7.008846337461425e-06 
7.008846337461425e-06 
7.008846337461425e-06 
7.008846337461425e-06 
-0.04424357228723554 
-0.04482507635605471 
0.1500780194993802 
-0.04424525972708731 
-0.04482676379590642 
-0.04424525972708731 
-0.04482676379590642 
-0.07118611371144894 
0 
2.177322551238311e-06 
2.177322551238311e-06 
2.177322551238311e-06 
4.421141340088624e-06 
4.421141340088624e-06 
4.421141340088624e-06 
3.344661867060126e-05 
3.849960393644335e-06 
3.849960393644335e-06 
3.849960393644335e-06 
3.849960393644335e-06 
0 
0.05299262049104109 
-1.788759094077487e-06 
-0.08609032921291161 
-1.788759094077487e-06 
-1.788759094077487e-06 
-0.1848234444115053 
2.094287631149347e-06 
-0.573946613807941 
-0.3092196644186336 
0 
-1.65052198707423e-05 
-1.65052198707423e-05 
-1.65052198707423e-05 
-1.65052198707423e-05 
-1.65052198707423e-05 
-1.65052198707423e-05 
-1.65052198707423e-05 
-1.65052198707423e-05 
-1.65052198707423e-05 
0.5008852259598667 
0.001488787004526363 
0.0005590432370453236 
0.0007274748203557214 
0.1523171081258643 
-0.002869376681810892 
3.295748635069905e-06 
0.06110793429110604 
3.295748635069905e-06 
1.462521121078331e-05 
3.295748635069905e-06 
3.295748635069905e-06 
3.295748635069905e-06 
3.295748635069905e-06 
0.208059143483899 
3.640947858918533e-06 
2.584372731821238e-05 
2.446860871347735e-05 
0.01185616153735306 
5.781464658169975e-05 
2.287775537625608e-05 
2.287775537625608e-05 
2.287775537625608e-05 
2.287775537625608e-05 
2.287775537625608e-05 
2.287775537625608e-05 
2.287775537625608e-05 
4.545211738245856e-06 
0.02033313821763735 
0.00425985279419169 
0.00425985279419169 
-8.031418697527632e-06 
-8.031418697527632e-06 
-8.031418697527632e-06 
-8.031418697527632e-06 
-8.031418697527632e-06 
-8.031418697527632e-06 
-8.031418697527632e-06 
-8.031418697527632e-06 
-8.031418697527632e-06 
-8.031418697527632e-06 
-8.031418697527632e-06 
-8.031418697527632e-06 
-0.002840991261298912 
0 
0 
0 
-1.081625442159904e-05 
-3.750986177211795e-05 
-3.750986177211795e-05 
-2.535999638020101e-05 
-3.750986177211795e-05 
-3.750986177211795e-05 
-3.750986177211795e-05 
-3.750986177211795e-05 
-2.535999638020101e-05 
-3.750986177211795e-05 
0.02813410630973039 
0.08255096011648455 
0.004809717187153335 
0.01038326024766366 
0 
0 
0 
0 
0 
0 
0 
0 
0.0563175277323945 
-0.09317980137042728 
0 
0.04922403791933687 
0 
0 
0 
0 
0 
5.649281546382069e-06 
0 
0 
0 
0 
0 
0 
0 
0 
0 
0 
0 
3.708050763157042e-05 
0.001413817764251303 
0.001447720470023564 
-0.000346508924186355 
-0.000346508924186355 
-0.0001182720874639299 
-0.0001182720874639299 
0 
0 
0 
3.585916211847448e-06 
0 
0.04564881283360765 
0.00175015149888281 
0 
-0.2461317559312377 
-0.03329547091914897 
0.0002855382285297069 
0.01364166570453452 
0 
3.322265705940437e-06 
0.0002646941182502783 
0.03034943519725236 
0.05960943709615209 
0 
0 
0 
0 
0.006215547971360425 
0.008277213210365566 
0 
0 
0 
3.476035659499187e-06 
6.551229758154799e-05 
6.551229758154799e-05 
6.551229758154799e-05 
6.551229758154799e-05 
6.551229758154799e-05 
6.551229758154799e-05 
6.551229758154799e-05 
6.551229758154799e-05 
6.551229758154799e-05 
6.551229758154799e-05 
6.551229758154799e-05 
6.551229758154799e-05 
6.551229758154799e-05 
6.551229758154799e-05 
-1.785986472770995e-07 
0.236556129028083 
0.2323311345033638 
-1.559932539207253e-06 
-1.785986472770995e-07 
-1.785986472770995e-07 
-1.785986472770995e-07 
-1.785986472770995e-07 
-1.785986472770995e-07 
-1.785986472770995e-07 
-1.785986472770995e-07 
-1.785986472770995e-07 
-1.785986472770995e-07 
-1.785986472770995e-07 
3.045107260251626e-05 
4.90398359051073e-06 
-0.1583381998283485 
-0.1583381998283485 
-0.1583381998283485 
-0.8583776623499586 
-0.1583381998283485 
-0.1583381998283485 
-0.1583381998283485 
0.0600133176959748 
0.006414107985018408 
-0.9289891945564007 
-0.9107875751069004 
0.00092404116740828 
1.781766012714297e-05 
1.781766012714297e-05 
0.107175970228387 
0.002034928710867183 
2.106979891995512e-05 
2.106979891995512e-05 
0.2531949056002956 
1.781766012714297e-05 
0.04488240690372279 
0.001317500447184441 
0.002018152068686956 
2.018754192601014e-05 
2.140097220202287e-05 
2.018754192601014e-05 
2.018754192601014e-05 
-0.01256229613754278 
2.018754192601014e-05 
2.018754192601014e-05 
0.0002171842166788658 
3.299465042588617e-05 
3.299465042588617e-05 
0.000121517228621961 
6.606207744694532e-05 
3.299465042588617e-05 
2.587047098108333e-05 
0 
2.972330568465438e-06 
0.03488084766216391 
0 
0 
0 
0.08285990236067803 
0 
-0.0002590186557463642 
0 
-0.0001545069141280564 
0 
1.177552127766033e-05 
0 
1.177552127766033e-05 
1.19618318930227e-06 
1.177552127766033e-05 
1.177552127766033e-05 
0.0161589266559454 
-0.1008476355779881 
6.076532205610792e-06 
0 
0 
0 
0 
0.02474307944316045 
0 
0 
0 
0 
0 
0 
0.01313181866540388 
0 
0 
0 
0 
0 
0 
0 
0 
2.598964358635791e-06 
0 
-0.0004015222928431442 
0 
0 
0 
0.4554100209949794 
0.1307284557753213 
0.0002043195333052899 
0 
1.488750170153247e-06 
1.488750170153247e-06 
1.488750170153247e-06 
1.488750170153247e-06 
0.001896385454682867 
0 
3.550278297394916e-05 
0 
0 
0 
0 
0 
0 
0 
0 
0 
0 
0 
0 
0 
0 
0 
0 
0 
4.459463835503309e-05 
0.1258084638555449 
0.03723359445850666 
-0.005179064751742422 
0.005118162287604889 
0.005118162287604889 
-0.001112685277778433 
0.00548595488981301 
0 
0 
0.0937649632573876 
0.09447837717768225 
0.09377467855587851 
0.1061167422175502 
-0.06193901038983343 
0 
-0.02339318663432978 
3.8957310659451e-06 
3.8957310659451e-06 
3.8957310659451e-06 
3.8957310659451e-06 
3.8957310659451e-06 
1.126180082602276e-05 
7.051553740786764e-06 
3.8957310659451e-06 
3.8957310659451e-06 
3.8957310659451e-06 
-0.0006441829350610324 
-0.0006441829350610324 
-0.001722351749647429 
-0.001288365870122065 
0.1312712982042467 
-0.001288365870122065 
0.08634006964886297 
0 
0 
0.06181274213369477 
0 
0 
0 
0 
0 
0 
0 
-0.08152854989749037 
0 
0.003418852572672535 
-3.863707574602493e-05 
0 
2.506732601346023e-05 
2.506732601346023e-05 
-0.02305720034662536 
-0.02305720034662536 
-0.02142032986256516 
0.2404989812845313 
0 
3.294703186427523e-06 
2.118368621312893e-06 
2.160870455309754e-05 
2.160870455309754e-05 
6.355004744264542e-06 
-0.0005476595018388008 
-0.0005476595018388008 
-0.0005476595018388008 
-0.0005476595018388008 
-0.0005476595018388008 
-0.0005476595018388008 
-0.0005476595018388008 
-0.0005476595018388008 
-0.0005476595018388008 
-0.0005476595018388008 
0 
0.0009810191223269169 
0 
0.000740030250829979 
0.000740030250829979 
0.0007475238643664357 
0.000740030250829979 
0.000740030250829979 
-0.2152875547957753 
0.09525034775521568 
-0.2169019900835145 
-0.2169019900835145 
-0.02802226251566753 
-0.02802226251566753 
-0.02802226251566753 
-0.2169019900835145 
-0.02802226251566753 
-0.02802002367727477 
-0.02802002367727477 
-0.02802027841996608 
-0.02802226251566753 
0.01828314517881443 
-0.02802002367727477 
-0.02802002367727477 
-0.02802226251566753 
-0.02802226251566753 
-0.02802226251566753 
-0.02802226251566753 
-0.02802226251566753 
-0.02802226251566753 
-0.02802226251566753 
-0.02802226251566753 
-0.0280298696971693 
0 
0 
0.1358234531689754 
1.078956429251981e-05 
-0.006061093973972605 
-0.0008184100492983891 
0 
0 
0 
0 
0 
0 
5.807616154747197e-06 
4.203650610718117e-05 
0.01295105393071078 
0.01295105393071078 
1.189006421259883e-05 
0 
-6.25341546303459e-08 
-0.03699086036309506 
0.1371516037222929 
-0.03842248911131723 
-0.04440072999998474 
0.1095230345968806 
0.06731070067876825 
0.1156079222309677 
-0.04073352054056376 
-0.04431788590476106 
-0.03923679083500787 
-0.03790612485342872 
0.009055526402863102 
0 
0 
0 
0 
0 
0.04070788239466742 
0 
0 
0 
0 
9.346055859092146e-06 
-0.001113528858790695 
4.304402066020572e-06 
4.304402066020572e-06 
4.304402066020572e-06 
0.002760281657863944 
0.002760281657863944 
0.002760281657863944 
0 
2.23308113280605e-05 
0 
2.23308113280605e-05 
-0.1089727852557813 
0.005085503674154799 
2.23308113280605e-05 
0 
0 
-0.1715537338654091 
-0.1715537338654091 
-0.1715537338654091 
-0.1715537338654091 
-0.1715537338654091 
-0.1715537338654091 
-0.1715537338654091 
-0.1715537338654091 
-0.1715537338654091 
-0.1715537338654091 
-0.1715537338654091 
-0.1715537338654091 
-0.1715537338654091 
-8.193927402376198e-05 
-0.0002635597653274963 
-8.193927402376198e-05 
-0.001094117402659137 
-0.001094117402659137 
-0.001094117402659137 
-0.001094117402659137 
-0.001094117402659137 
-0.0009044900743869375 
-0.2722836988576615 
-0.001093854248754307 
-0.04378832547410232 
-0.04333277607023997 
-0.04528544250576617 
-0.001094117402659137 
-0.001094117402659137 
0 
0 
0.007471950085083902 
0 
0 
-0.0002613875417746916 
0.0529405803065475 
0 
0 
0 
0.02971800426437837 
0.6841135115456249 
0.03989389616958836 
0.03993634875307123 
0.04024241245631878 
-5.790356484745598e-07 
-5.790356484745598e-07 
-5.790356484745598e-07 
-5.790356484745598e-07 
-5.790356484745598e-07 
-5.790356484745598e-07 
-5.790356484745598e-07 
-5.790356484745598e-07 
-5.790356484745598e-07 
-5.790356484745598e-07 
-5.790356484745598e-07 
-5.790356484745598e-07 
-5.790356484745598e-07 
0 
0 
0 
0 
0 
0 
3.57938506220223e-06 
4.605805740561892e-06 
4.605805740561892e-06 
-0.05713412249845883 
0.1469446139564694 
0.008308393652483459 
0 
0.0003355329426894215 
0.001024226785286013 
0.0229569011397496 
0.0003355329426894215 
0.0003355329426894215 
0.1590420617141306 
0.0003355329426894215 
0.008183869549823242 
0.0003355329426894215 
0.08905147986051253 
-0.4743876529285393 
0.03740285229784563 
-0.03964856257659116 
-0.03964856257659116 
-0.03964856257659116 
0 
0.03651065842698533 
0 
0 
0 
3.270419636762194e-06 
-0.0006739373056509007 
0.09546854277561831 
-5.337316577590726e-06 
-0.1581781810297531 
-3.711610397353392e-06 
-3.711610397353392e-06 
4.169231565496324e-06 
-3.711610397353392e-06 
-3.711610397353392e-06 
-3.711610397353392e-06 
0.1023777772487511 
-0.2683507355822952 
-3.711610397353392e-06 
-5.337316577590726e-06 
-5.337316577590726e-06 
-5.337316577590726e-06 
-3.711610397353392e-06 
-3.711610397353392e-06 
-3.711610397353392e-06 
-3.711610397353392e-06 
-3.711610397353392e-06 
-3.711610397353392e-06 
-3.711610397353392e-06 
-5.337316577590726e-06 
-3.711610397353392e-06 
-3.711610397353392e-06 
-3.711610397353392e-06 
-5.337316577590726e-06 
-3.711610397353392e-06 
-3.711610397353392e-06 
1.839586211155581e-06 
0.02939788869688523 
0.02930276562201984 
0.02971322007726085 
0.02939788869688523 
-5.676112932882454e-05 
-5.676112932882454e-05 
-5.676112932882454e-05 
4.550249041999748e-05 
4.550249041999748e-05 
4.550249041999748e-05 
4.550249041999748e-05 
4.550249041999748e-05 
4.550249041999748e-05 
4.550249041999748e-05 
4.550249041999748e-05 
4.550249041999748e-05 
4.550249041999748e-05 
4.550249041999748e-05 
4.550249041999748e-05 
4.550249041999748e-05 
0.127796087970333 
0.01735030623827654 
4.799455200334007e-05 
4.799455200334007e-05 
7.537543219010685e-05 
-0.0002797496067732384 
-1.014806412650126 
-0.1395609887771852 
-0.0008424112728314155 
0.2385522645109249 
2.878114827079273e-06 
2.878114827079273e-06 
2.878114827079273e-06 
0 
5.843449503896968e-06 
0.05176204940143673 
0 
0 
-0.004364926953280408 
-0.004366059831909585 
0 
0.225829619270006 
0 
0 
0 
0.0002809771151632055 
0.0002809771151632055 
0.0002809771151632055 
0.0002809771151632055 
0.0002809771151632055 
0.0002809771151632055 
0.0002809771151632055 
0.0002809771151632055 
0.0002809771151632055 
0.0002809771151632055 
0.0002809771151632055 
0.0002809771151632055 
0.0002809771151632055 
0.0002809771151632055 
2.341139385355159e-05 
-0.0036755073520453 
-0.006483694381831297 
1.823124745143142e-07 
1.823124745143142e-07 
1.823124745143142e-07 
1.823124745143142e-07 
1.823124745143142e-07 
1.823124745143142e-07 
1.823124745143142e-07 
1.823124745143142e-07 
1.679820102650781e-06 
0.09083516572960304 
0.004298966926153542 
2.939375395748949e-06 
-0.0003183321178234508 
-1.816903404453221e-06 
0 
0 
6.803600509973696e-06 
0 
0 
0 
0 
-0.05413541838471402 
-0.05413541838471402 
0 
0 
0 
0 
4.159545829139278e-05 
0.003085354034177925 
0.0005467495928001377 
0.008413035537322791 
0 
0.01336927251876786 
-0.4041427120191751 
0 
0.008090206247409425 
0.0005631234311509376 
-0.2032133306644984 
0 
0 
0 
8.792745705731864e-06 
-0.1950990448790361 
0 
8.792745705731864e-06 
-0.1961660478546424 
-0.07109040633281656 
-0.02831595454333561 
-0.111102297472509 
-0.111102297472509 
-0.111102297472509 
-0.111102297472509 
6.254880561958166e-06 
-0.1116165989437398 
0 
-0.111102297472509 
3.608383977045105e-06 
5.351186416794172e-06 
3.608383977045105e-06 
3.608383977045105e-06 
0.01218328902868653 
0.1906645790556586 
0.01533974674682503 
0.0156294790250697 
0.0156294790250697 
0.007148750382647083 
0 
-0.3662689959585061 
0.1373678791995903 
0.001055220051629999 
0.03800315637953738 
-7.283925878227188e-06 
0 
-0.0343819266826001 
0 
0.01489960317831671 
0 
0 
0 
0 
0 
-0.2130602533795341 
0 
0 
0 
0 
0 
0 
0 
5.011429510360114e-06 
-0.002215910673286132 
0 
0.002807663175693487 
0.005085601665421158 
0.002737361715635516 
0.005085601665421158 
0.005085601665421158 
0.003727677911929971 
0.008367336157423307 
0.01011990981974188 
0.01011990981974188 
0.01011990981974188 
0.01011990981974188 
0.008670258105282552 
0.008367336157423307 
0.01011990981974188 
0.01011990981974188 
-0.0002970953677366486 
-0.0002970953677366486 
-0.000223207090037615 
-0.000223207090037615 
-0.0006695663660878703 
-0.0008880379898906348 
-0.0008880379898906348 
-0.0008880379898906348 
-0.0005476451841323801 
-0.0004436941362313275 
0.003471557645244477 
0.03905382890861023 
-0.03960845337580857 
0.02569089647191047 
0.0007033815629624204 
0.1206754488525744 
0.1114200679284826 
0 
0.005576989741615645 
0 
0 
0 
0 
0 
0 
0.005576989741615645 
0 
0 
0 
1.062831399069646e-06 
0 
0 
0 
0 
0 
0.02915448866091554 
0 
0.06344663200208253 
1.363059972235386e-05 
0.3944302461861338 
-0.004087942010051832 
-0.1192318149051304 
0.03051661162913456 
0.1210980168756438 
0 
0.04370425675771156 
-8.315660707873999e-06 
0 
0 
0 
0.007911226085659624 
0 
0.0002966062207696326 
0 
0 
0.003873969369591142 
0.003873969369591142 
0.007632959633684823 
0.03098182290806285 
0.003878836458416732 
0.003873969369591142 
-1.378906967832258e-06 
0.05910659039974894 
-2.757813935664517e-06 
1.857246308011005e-05 
0.1025813230073825 
0 
0 
0 
0.01186286554942922 
0.01180208364123258 
0 
0 
0 
0 
0 
0 
0 
0.07712113394061539 
0 
0.0005858447727843515 
0 
0 
-0.4761836256619062 
-0.001895369347244072 
0 
0.001390109064143418 
-0.01927775101186702 
-0.0001614848128454604 
-0.05716586590975376 
-0.005729051405810644 
0.160447492179477 
0.2042797743603519 
-0.001808677045909216 
0 
0.07268520435036907 
0.0007953523360877896 
0 
-0.04642631534332655 
-0.113194147801405 
-0.01569408358703323 
1.445166373339782e-05 
0.05337320239745128 
0 
0 
0 
0 
0.1707370247716072 
0 
0.006138285277556443 
-1.748688936872945e-06 
0 
-0.1322051417233152 
0 
-0.2129551109879501 
0.111257436807088 
-0.1219418707912839 
0 
0.001260340048965976 
-0.4159199671634215 
0.001260340048965976 
0 
-3.751570264601315e-07 
0 
-7.522691947788075e-06 
-7.522691947788075e-06 
0.0002280845592136766 
0.006867585843682079 
0.003124439579006209 
0.006867585843682079 
0.002218288587769244 
0.006867585843682079 
0.006867585843682079 
0.006867585843682079 
2.381386283877638e-06 
0.07408891190919072 
0.1268310319511879 
0 
0 
2.434422142882788e-05 
0.09086358601536838 
-0.2805712150112291 
0.0009876928524904297 
0 
0 
4.364142007995879e-06 
3.457654577414787e-07 
0.007085818244753649 
0.0002379227486883769 
0.0002390689378511869 
0.0002390689378511869 
0.007077111331665836 
0.006032361001601197 
0.00707438660318667 
-0.1720914888543474 
0.0964154022247703 
0.0002390689378511869 
0.0002390689378511869 
0 
0.0002390689378511869 
0.0002390689378511869 
0.0002390689378511869 
0.0002390689378511869 
0.0002390689378511869 
0.0002390689378511869 
0.0002390689378511869 
0.0002390689378511869 
0.0002390689378511869 
0.0002390689378511869 
0.0002390689378511869 
0.0002390689378511869 
0.0002390689378511869 
0.0002390689378511869 
0.0002390689378511869 
0.0002390689378511869 
0.0002390689378511869 
0.0002390689378511869 
0.0002390689378511869 
0.0002390689378511869 
0.0002390689378511869 
0.0002390689378511869 
0.0002390689378511869 
0.0002390689378511869 
0.006923382589116947 
0.006920694189791507 
0.006937650025139498 
0.006926549854927265 
0.00692571050495127 
0.04730371051069889 
0.04730371051069889 
-0.1776974388699257 
-0.1776974388699257 
-0.1619520440586963 
-0.1776974388699257 
-0.1776974388699257 
0.0640727728190963 
0.04730371051069889 
0.04730371051069889 
0.04730371051069889 
-0.1776974388699257 
-0.1776974388699257 
-0.1776974388699257 
3.337722349906995e-06 
0 
0 
0 
0.3242329805299517 
-0.08276660093241485 
0 
0 
0.1325637174905182 
0.3772134948050492 
0 
0.1297466180544514 
3.606011289132185e-05 
0 
5.140848292643555e-05 
5.140848292643555e-05 
9.201632022677864e-05 
0.0001561809301079468 
9.201632022677864e-05 
9.201632022677864e-05 
9.201632022677864e-05 
9.201632022677864e-05 
5.140848292643555e-05 
-0.001610602836094318 
0.0351204263764907 
-0.3247626923569454 
0.021301114182087 
0.02129674442074556 
0.02129674442074556 
0.03207251192039545 
0.02129674442074556 
0 
0 
0 
0 
0 
0.00236134188752767 
3.074175918114657e-05 
0.03383099465658271 
0.007146609358893332 
1.395492228980523e-05 
1.395492228980523e-05 
0.007146609358893332 
0.007158350641074838 
0.009296066590549761 
0.007146609358893332 
0.007146609358893332 
1.978320159762686e-05 
0 
6.349136738079306e-06 
4.558730264759426e-05 
6.349136738079306e-06 
6.349136738079306e-06 
0.0006306899987433389 
0.0004246211528956163 
0 
3.875670913217185e-05 
0 
3.875670913217185e-05 
6.258590469941143e-05 
3.875670913217185e-05 
-3.447103340486402e-06 
3.875670913217185e-05 
3.875670913217185e-05 
3.875670913217185e-05 
3.875670913217185e-05 
3.84320796023902e-05 
3.875670913217185e-05 
3.875670913217185e-05 
3.875670913217185e-05 
3.875670913217185e-05 
3.875670913217185e-05 
3.875670913217185e-05 
3.875670913217185e-05 
0.001843131516023459 
3.875670913217185e-05 
3.875670913217185e-05 
3.875670913217185e-05 
0.05690206349945689 
3.875670913217185e-05 
3.875670913217185e-05 
3.875670913217185e-05 
3.875670913217185e-05 
3.875670913217185e-05 
3.875670913217185e-05 
0 
0 
0 
0 
0 
0 
0.08473319636264054 
0 
0 
0 
0 
0 
0 
0 
0 
0 
-0.3684351153050051 
0 
0 
0 
-0.001669115500703267 
0 
0 
0.004903998047941088 
0.08065323738410997 
0.07202602497161376 
0.003851371821836076 
-0.4203729509261997 
-0.0003872159610795266 
3.218696341241833e-06 
3.218696341241833e-06 
3.218696341241833e-06 
0.0003280680246939955 
3.218696341241833e-06 
3.218696341241833e-06 
3.218696341241833e-06 
3.218696341241833e-06 
3.218696341241833e-06 
3.218696341241833e-06 
3.218696341241833e-06 
3.218696341241833e-06 
3.218696341241833e-06 
3.218696341241833e-06 
3.218696341241833e-06 
0.005790849020720082 
3.288831805038443e-07 
1.606078333762058e-06 
5.97283560111369e-06 
5.97283560111369e-06 
5.97283560111369e-06 
5.97283560111369e-06 
5.97283560111369e-06 
-0.04650691177153693 
-0.007681687752579551 
-0.007681687752579551 
-0.007681687752579551 
-0.007681687752579551 
0.003343662251664381 
-0.0002921482770177376 
-0.3177500830417322 
0.2292202317342593 
-0.3556207287602659 
0 
0 
0 
0 
0 
0 
0 
0 
0 
0 
0 
0 
0 
0 
0 
0 
0 
0 
0 
0 
0 
0 
0.001899913145866715 
0.001894147248792501 
0.001894147248792501 
0.001895920389868302 
0.001520118974226488 
0.01486132915528598 
0 
0.000291625931412649 
0.000291625931412649 
0.000291625931412649 
0.000291625931412649 
0.000291625931412649 
0.000291625931412649 
0.000291625931412649 
0.000291625931412649 
0.000291625931412649 
0.000291625931412649 
0.000291625931412649 
0.000291625931412649 
0.04379572698912305 
0.000291625931412649 
0.000291625931412649 
0.000291625931412649 
0.0002909327636373282 
0.000291625931412649 
0.000291625931412649 
0.000291625931412649 
0.000291625931412649 
0.000291625931412649 
0.000291625931412649 
0.0002913805632971544 
0.000291625931412649 
0.001907936193152163 
0.000291625931412649 
0.000291625931412649 
0.000291625931412649 
0.000291625931412649 
0.000291625931412649 
0.0002395099111675462 
6.566325827937632e-05 
6.566325827937632e-05 
6.566325827937632e-05 
6.566325827937632e-05 
6.566325827937632e-05 
6.566325827937632e-05 
6.566325827937632e-05 
6.566325827937632e-05 
6.566325827937632e-05 
6.566325827937632e-05 
6.566325827937632e-05 
6.566325827937632e-05 
6.566325827937632e-05 
6.566325827937632e-05 
6.566325827937632e-05 
6.566325827937632e-05 
6.566325827937632e-05 
6.566325827937632e-05 
0.01200129089232256 
6.566325827937632e-05 
6.566325827937632e-05 
-0.1137358556544668 
-0.2568236717271115 
-0.1137358556544668 
-0.3788129818959934 
-0.1813263505956534 
-0.1117192429637083 
-0.3526472571654403 
-0.0008083980316427452 
-0.5222593645073416 
-0.04459428165186809 
2.923011187271114e-06 
1.229195608568358e-05 
0 
0 
0 
0 
0 
0 
0 
0 
0 
0 
0 
0 
0 
0 
0 
0 
0 
0 
0 
0 
0 
0 
0 
0 
0 
0 
0 
0 
0 
0 
0 
0 
0 
0 
0 
0 
0 
0 
0 
0 
0 
0 
0 
0 
0 
0 
0 
0 
0 
0 
1.599526312031833e-05 
-0.01584056419380657 
-0.01584056419380657 
-0.01584056419380657 
-0.01584056419380657 
-0.001582841429886067 
-0.001582841429886067 
-0.01584056419380657 
-0.01584056419380657 
-0.001582841429886067 
-0.001129221146151756 
-0.001582841429886067 
-0.001582841429886067 
0 
6.075200704096654e-07 
6.075200704096654e-07 
1.09256631391511e-05 
0 
-6.78872831159842e-05 
-0.002461250987609065 
2.477255666867957e-06 
0.07152192078973529 
0.01899513134005672 
0.01730801056206761 
0 
0 
0 
-1.149246897901587e-07 
-0.0136627370988856 
0.05245251665300627 
-1.149246897901587e-07 
0 
2.008062782334711e-05 
0 
0 
0 
0 
0 
0 
0 
4.809409350450412e-06 
0 
0 
0 
0 
0 
0 
0.005370758045412123 
0 
-0.003702618929249476 
2.29118863698184e-05 
-0.0007534341450181909 
2.595666311414435e-06 
2.595666311414435e-06 
2.595666311414435e-06 
2.595666311414435e-06 
2.595666311414435e-06 
2.595666311414435e-06 
2.595666311414435e-06 
2.595666311414435e-06 
2.595666311414435e-06 
2.595666311414435e-06 
2.595666311414435e-06 
2.595666311414435e-06 
2.595666311414435e-06 
0.1065876399419663 
0.002895388758790502 
-0.002381083387539996 
-0.002381083387539996 
-0.002471261349466681 
-0.002471261349466681 
-0.007428771513191421 
-0.002390415486277823 
-0.002471261349466681 
-0.007525369360813191 
-0.002471261349466681 
-0.002427712046291676 
-0.002471261349466681 
-0.007525693990342973 
-0.002471585978996463 
-0.002471261349466681 
-0.002471261349466681 
-0.002471261349466681 
-0.002480593448204508 
-0.002471261349466681 
0 
0.0001373115439528107 
0 
7.303658137123381e-05 
0.00155444923557443 
0.00155444923557443 
0.00155444923557443 
0.001091147100294191 
0.02479131804579945 
0.0002309156552498627 
0.0002309156552498627 
0.0002309156552498627 
0.0002309156552498627 
0.0002309156552498627 
0 
0 
0 
0 
0 
0 
0 
0 
0 
0 
0 
0 
0 
0.2211034839277745 
8.04420369198143e-06 
8.04420369198143e-06 
-0.1881185418010796 
2.711969265642904e-06 
7.419911698745736e-06 
-0.0008673396950966498 
0 
0.0003966888109541246 
-0.3889644073692956 
0 
-0.000911301743678775 
-0.000911301743678775 
-0.000911301743678775 
-0.000911301743678775 
-0.654327231446749 
0 
0 
0 
0 
-0.418744999723298 
7.698768663298028e-05 
1.142716804262856e-05 
1.142716804262856e-05 
3.034031798760416e-06 
8.571414200526623e-07 
1.320075477282822e-05 
3.034031798760416e-06 
-6.21714179639085e-06 
0.1270543512823114 
3.237281196081378e-07 
0.0003674849072972772 
3.237281196081378e-07 
3.237281196081378e-07 
3.237281196081378e-07 
3.237281196081378e-07 
3.237281196081378e-07 
3.237281196081378e-07 
0 
0.1342686329384151 
-3.67262648863719e-05 
0.1281057344183602 
7.31896993106963e-06 
7.31896993106963e-06 
2.655027662624136e-05 
-0.01027433538942755 
7.31896993106963e-06 
0 
0 
0 
0 
0.1124690869857181 
1.17542341396463e-05 
8.560679535819043e-06 
8.560679535819043e-06 
8.560679535819043e-06 
8.560679535819043e-06 
8.560679535819043e-06 
8.560679535819043e-06 
-0.002488082356936139 
0.0003368643142371121 
0.0003368643142371121 
0.0003368643142371121 
0.02676409358465477 
0.0003368643142371121 
0.0003368643142371121 
2.722231601450966e-06 
0 
0.006333560451061045 
0.006333560451061045 
0.006333560451061045 
0.006333560451061045 
0.006333560451061045 
0.006333560451061045 
0 
0.0004850523354246464 
0.0004850523354246464 
0.0004850523354246464 
0 
-0.1021101067790766 
-0.1021101067790766 
-0.1021101067790766 
-0.2346549053178087 
-0.1021101067790766 
-0.04060544261128435 
-0.183602737190492 
-0.1021101067790766 
-0.1021101067790766 
0.01528252007258379 
3.170402069178405e-05 
3.170402069178405e-05 
0.0585326043655152 
3.170402069178405e-05 
3.170402069178405e-05 
3.170402069178405e-05 
3.170402069178405e-05 
3.170402069178405e-05 
3.170402069178405e-05 
-0.009054992786926619 
-0.1874069816428902 
-0.4232374071056169 
0.1952094938193842 
1.057411114522736e-06 
1.057411114522736e-06 
1.057411114522736e-06 
0 
-0.0008824791132774011 
-0.0008817644911953746 
-0.0008817644911953746 
0 
0 
-0.002071489301130138 
-9.157346301801068e-06 
3.491800167460038e-06 
3.491800167460038e-06 
-2.455360953104536e-05 
3.491800167460038e-06 
3.491800167460038e-06 
0.0001689301150117489 
0.001785235745481647 
0.00266784571392367 
0.00266784571392367 
0.01706701889538655 
0.03382931322735044 
0.001151643787268718 
0.03149538529861199 
0.03149538529861199 
-0.003688876460345084 
-0.003688876460345084 
-0.003688876460345084 
-0.008256067231670845 
-0.008256067231670845 
-0.008256067231670845 
-0.04136604784024771 
0.01796997341822327 
-0.03076689485733864 
-0.001080285330984237 
-0.004978281066850478 
-0.004978281066850478 
-0.0446587306995616 
0 
-0.003688876460345084 
0 
-0.003688876460345084 
-0.003688876460345084 
-0.003688876460345084 
-0.003688876460345084 
-0.003688876460345084 
-0.003688876460345084 
-0.003688876460345084 
-0.003688876460345084 
-0.003688876460345084 
-0.003688876460345084 
-0.003688876460345084 
-0.003688876460345084 
-0.003688876460345084 
-0.003688876460345084 
-0.003688876460345084 
-0.003688876460345084 
-0.003688876460345084 
-0.003688876460345084 
-0.003688876460345084 
-0.003688876460345084 
-0.003688876460345084 
-0.003688876460345084 
-0.003688876460345084 
0 
4.692017437120058e-05 
0 
0 
-2.581584449065494e-05 
0.1174736736715049 
-2.581584449065494e-05 
0.1171931485682033 
-2.427695072090721e-05 
-8.846222261971455e-06 
-2.581584449065494e-05 
-2.581584449065494e-05 
-2.581584449065494e-05 
-2.581584449065494e-05 
7.894035343912912e-05 
7.894035343912912e-05 
0.009886698550189848 
0.0001062244120361485 
0.0001416826663095446 
0.07849549251401314 
-0.02223296733917592 
0.02689807409405429 
0 
-0.07450464428730877 
-0.2733003966504911 
0.0001416826663095446 
0.02689807409405429 
0 
0 
0.001380890278457825 
3.687964924809699e-05 
0.008612110902015318 
0 
4.798617692539882e-05 
0 
0 
0 
0 
0 
0 
0 
0 
0 
0 
0 
0 
0 
0 
0 
0 
0 
0 
0 
0 
0 
0 
0.09923735977451432 
0.002714939262859143 
0.0001416826663095446 
0.0001416826663095446 
0 
0.04262791694772042 
0.002714939262859143 
0.0001416826663095446 
0.0001416826663095446 
0.1331069565127805 
0.0001416826663095446 
0.02423249390529219 
-5.177882186066403e-05 
0.02045286940063137 
2.790977465152912e-06 
0.000144269393029235 
0 
0 
0 
0 
0 
0 
0 
0 
0 
0 
0 
0 
0 
0 
0 
0 
0 
0 
0 
-0.0003822699697420066 
-0.0003350825309881709 
-0.0003822699697420066 
-0.6795470714660153 
-0.2267860250219942 
0 
0 
0.002636356446920744 
0.0001095979578875115 
0.002636356446920744 
0.0001095979578875115 
-3.206395378216537e-06 
-3.734414490075841e-05 
-3.206395378216537e-06 
9.368964574930515e-05 
0.2705460045708297 
1.006003608757459e-05 
0.0001196579939750862 
0.01006989535924356 
0.009781181046305484 
0.002576321788715239 
0.05305510592934428 
0.05305510592934428 
0 
0.1331709841399381 
0.05252068478832546 
0 
7.93286665563328e-05 
7.93286665563328e-05 
7.93286665563328e-05 
8.169853984590945e-06 
0.02635436270687636 
0.02633883192074845 
0.1694921587123778 
5.312516054976631e-05 
5.312516054976631e-05 
5.312516054976631e-05 
0 
5.312516054976631e-05 
5.312516054976631e-05 
5.312516054976631e-05 
5.312516054976631e-05 
-0.1429768028375555 
-0.1830230370172841 
-0.1830230370172841 
-0.1830230370172841 
-0.006187323913438172 
-0.006187323913438172 
-0.001591200122088831 
-0.006853388314081769 
-0.006853388314081769 
-0.006853388314081769 
-0.006853388314081769 
-0.006853388314081769 
-0.006853388314081769 
-0.006853388314081769 
-0.006853388314081769 
-0.006853388314081769 
-0.004373427424816 
-3.223061403520416e-05 
-3.223061403520416e-05 
-3.223061403520416e-05 
-3.223061403520416e-05 
-3.223061403520416e-05 
-3.223061403520416e-05 
-3.223061403520416e-05 
-3.223061403520416e-05 
-3.223061403520416e-05 
-3.223061403520416e-05 
0 
-3.223061403520416e-05 
-3.223061403520416e-05 
-3.489891845761801e-05 
0.0002772437930340043 
-0.0003001055238295964 
-0.0003261329569474837 
-0.0003229711801286951 
0.003107784871942593 
-0.04896543076840416 
-0.1633183761769192 
0.09814655670721753 
-0.09553615985267744 
-0.1619024308507087 
0.3769345714129554 
-0.2508826336607555 
0.3769345714129554 
-0.3425503056022202 
-0.3425503056022202 
-0.09497566224253587 
0.2061315302172052 
0 
0 
0 
0 
0 
0 
0 
0 
0 
0 
0 
0 
0 
0.0004630238409727086 
0.0004630238409727086 
0.0004630238409727086 
0.0004630238409727086 
0.0004630238409727086 
0.0004630238409727086 
0.0004630238409727086 
0.0004630238409727086 
0.0004630238409727086 
0.0004641427534917675 
0.0004630238409727086 
0.0004630238409727086 
0.0004630238409727086 
0.0004630238409727086 
0.02011723415418307 
0.0004630238409727086 
0.0004630238409727086 
0.0004630238409727086 
0.0004630238409727086 
0.0004630238409727086 
0.0004630238409727086 
0.0004630238409727086 
0.0004630238409727086 
0.0004630238409727086 
0.0004630238409727086 
0.0004630238409727086 
0.0004630238409727086 
0.0004630238409727086 
0.0004630238409727086 
0.0004630238409727086 
0.0004630238409727086 
0.0004630238409727086 
0.0004630238409727086 
0.0004630238409727086 
0.0004630238409727086 
0.0004630238409727086 
0.0004630238409727086 
0.0004630238409727086 
0.0004630238409727086 
0.0004630238409727086 
0.0004630238409727086 
0.0004630238409727086 
0.0004630238409727086 
0.0004630238409727086 
0.0004630238409727086 
0.0004630238409727086 
0.0004630238409727086 
0.0004630238409727086 
0.0004630238409727086 
0.0004630238409727086 
0.0004630238409727086 
-0.115696410803226 
-0.115696410803226 
-0.115696410803226 
-0.115696410803226 
-0.2237239537128594 
-0.115696410803226 
-0.115696410803226 
-0.115696410803226 
0.002659335136055445 
0.002659335136055445 
0 
0 
0 
9.296448402197899e-05 
-4.508264746410359e-06 
0.008772126296638833 
-1.379355372213249e-05 
0.00876294404207857 
-4.508264746410359e-06 
2.198088545828714e-05 
2.198088545828714e-05 
2.198088545828714e-05 
2.198088545828714e-05 
2.198088545828714e-05 
1.981375834934179e-05 
1.981375834934179e-05 
0.005667872529413376 
0.005667872529413376 
5.698430378716001e-06 
5.698430378716001e-06 
5.698430378716001e-06 
-0.1359516529518393 
-0.2116881742451819 
-0.0523891697683758 
-0.1753643158147209 
0.0009198785549787961 
0.000805942689453862 
-0.01315548833614814 
0.1210749172077558 
0.1094378109071542 
0.0005295110367426381 
-0.001364156603354758 
-0.001656957135669693 
-2.163628632104856e-05 
-2.163628632104856e-05 
-0.5884485999958956 
0.09327524164715387 
0.09327524164715387 
-0.1317196526278077 
0.09327524164715387 
0.001484895225566301 
0 
0 
0 
0 
0 
0 
0 
-0.009666957142711137 
-0.02519588713520977 
-0.009666957142711137 
-0.02519588713520977 
0.000798726311131515 
0.01169580175331721 
0.01695464952544904 
-0.02447669557440761 
2.559929511220866e-05 
-0.02697891939255818 
0.05623832729099067 
0.0001625064028779427 
-0.02534692514341961 
0.01483477687345939 
-0.02697891939255818 
-0.02697891939255818 
-0.02697891939255818 
-0.02697891939255818 
-0.02697891939255818 
-0.02697891939255818 
-0.02697891939255818 
-0.02697891939255818 
-0.02697891939255818 
-0.02697891939255818 
-0.01263510723402596 
-0.02697891939255818 
-0.02697891939255818 
-0.02697891939255818 
-0.02697891939255818 
0.0407955039184453 
-0.0269759138562321 
-0.02697891939255818 
-0.02697891939255818 
0 
0 
0 
0 
0.000135702678223458 
0.000135702678223458 
0.000135702678223458 
0.000135702678223458 
0 
-0.1013546790273242 
-1.214986539191693e-05 
-2.669360735051892e-05 
-1.214986539191693e-05 
0 
-1.214986539191693e-05 
0 
0 
0 
0 
0.01574447278559624 
0 
0 
0 
0 
2.107907408355879e-05 
2.107907408355879e-05 
0.07257339422412482 
2.107907408355879e-05 
2.107907408355879e-05 
-0.3653791745698113 
2.107907408355879e-05 
0.09636583128201549 
4.494188425134183e-06 
0.1264274318795102 
0.03118756121979093 
9.742524516842194e-07 
0.09856567697926187 
0 
4.194161339003889e-05 
4.194161339003889e-05 
4.194161339003889e-05 
4.194161339003889e-05 
6.781028589195425e-05 
6.781028589195425e-05 
0.003446189996383187 
-7.860283574084806e-06 
0.07646108609959455 
0.1229393634388942 
2.463159433444095e-06 
2.463159433444095e-06 
2.463159433444095e-06 
2.463159433444095e-06 
2.463159433444095e-06 
2.463159433444095e-06 
2.463159433444095e-06 
2.463159433444095e-06 
2.463159433444095e-06 
2.463159433444095e-06 
2.463159433444095e-06 
2.463159433444095e-06 
2.463159433444095e-06 
2.463159433444095e-06 
-7.860283574084806e-06 
2.463159433444095e-06 
-1.186628195693684e-05 
-1.186628195693684e-05 
-1.186628195693684e-05 
-1.186628195693684e-05 
-1.186628195693684e-05 
-1.186628195693684e-05 
-1.186628195693684e-05 
-1.186628195693684e-05 
-0.0001050544102146046 
0.04283468329558261 
0.3717741985091953 
0.0004844553900309739 
0.0004844553900309739 
0.0004844553900309739 
0.0004844553900309739 
0.0005198523701493716 
0.05263302665781078 
0 
-0.7689876296993498 
2.25414293466301e-05 
2.25414293466301e-05 
1.800008023249336e-05 
-0.0002202772371994185 
1.800008023249336e-05 
1.800008023249336e-05 
1.800008023249336e-05 
1.800008023249336e-05 
1.800008023249336e-05 
1.800008023249336e-05 
1.800008023249336e-05 
1.800008023249336e-05 
1.800008023249336e-05 
0.01952148582376888 
1.800008023249336e-05 
1.800008023249336e-05 
1.800008023249336e-05 
1.800008023249336e-05 
-0.0002821769109968497 
2.567437454839371e-05 
2.567437454839371e-05 
2.567437454839371e-05 
2.567437454839371e-05 
2.567437454839371e-05 
2.567437454839371e-05 
-0.08327644916305346 
2.567437454839371e-05 
2.567437454839371e-05 
2.567437454839371e-05 
2.567437454839371e-05 
2.567437454839371e-05 
2.567437454839371e-05 
0 
0 
0 
0 
0 
3.120855821458389e-05 
3.120855821458389e-05 
2.882478892858418e-05 
2.882478892858418e-05 
3.120855821458389e-05 
3.120855821458389e-05 
2.501643729219307e-05 
0.0009664568814121146 
1.679367694233147e-05 
2.725146644352859e-05 
2.023946461397057e-05 
2.977107562498133e-05 
2.023946461397057e-05 
2.023946461397057e-05 
2.023946461397057e-05 
2.023946461397057e-05 
1.808914798402603e-05 
-0.004732300547533518 
1.177684006012442e-05 
0 
0 
6.36369585895645e-05 
0 
0 
0 
0 
0 
0 
0 
0.00504602353484132 
0 
0 
-7.528985314409018e-05 
0 
2.659148004471233e-06 
0 
1.250531363669805e-06 
-0.004442304876858096 
0.02900717690652775 
0 
-1.861378775702201e-05 
-1.861378775702201e-05 
-1.861378775702201e-05 
-1.861378775702201e-05 
-1.861378775702201e-05 
-1.861378775702201e-05 
2.23584250961809e-05 
0 
0 
0.009536407830866178 
0.00953419866478261 
0.009044451578705997 
0.1497475706841621 
0.009536360603214489 
-0.1139912225404853 
0 
0.06584154938581203 
0 
0 
0 
0.0002819070828317129 
1.494467912012323e-05 
1.494467912012323e-05 
0.003212201741118998 
0.003212201741118998 
0.003212201741118998 
0.003212201741118998 
0.003457209839873052 
0.1313292217317353 
0.003222950542392182 
0.003222950542392182 
0.0006568945022858901 
0.0006568945022858901 
0.0006568945022858901 
0.003212201741118998 
0.003212201741118998 
0 
-0.04917921114212589 
-0.004560331940365373 
-0.004576979323695881 
-0.04919811345667491 
-0.04919811345667491 
-0.04916691496315777 
-0.04918955520268241 
-0.04919811345667491 
-0.04919811345667491 
-0.00371315495170845 
-0.04919811345667491 
-0.04919811345667491 
-0.04919811345667491 
-0.04919811345667491 
-0.04919811345667491 
-0.04919811345667491 
-0.04919811345667491 
-0.04919811345667491 
-0.04919811345667491 
-0.04919811345667491 
-0.00377422198224367 
-0.04919811345667491 
-0.003796862221768304 
-0.00380542047576081 
-0.003782780236236179 
-0.04919811345667491 
-0.00380542047576081 
-0.003796862221768304 
-0.003796862221768304 
-0.003796862221768304 
-0.00377422198224367 
-0.003796862221768304 
-0.003796862221768304 
-0.003796862221768304 
-0.00377422198224367 
-0.003796862221768304 
-0.003796862221768304 
-0.003796862221768304 
-0.00377422198224367 
-0.00377422198224367 
0 
0 
0 
0 
0 
0 
0 
0 
0 
0 
0 
0.02387800560198403 
-0.0001765986926054754 
0.1935352699747005 
0.1992085245715831 
0.01342906597503563 
0.01879571608329281 
0.01417800913884461 
0.04373340134166875 
0.01366728996962384 
0.01417800913884461 
0.01342906597503563 
2.795794872759224e-06 
2.795794872759224e-06 
-6.782550978613732e-06 
-4.248160584370336e-06 
-6.782550978613732e-06 
-6.364319835415372e-06 
-0.0005191389213735553 
0.07737865857929453 
-6.364319835415372e-06 
0.06141100202492677 
-4.248160584370336e-06 
2.795794872759224e-06 
2.795794872759224e-06 
-4.248160584370336e-06 
2.795794872759224e-06 
0 
0 
4.867220348535428e-06 
4.867220348535428e-06 
0 
0 
-0.0003233076159227272 
4.633303315696569e-05 
0 
0 
0.04970233349389411 
-0.0001633169525999653 
-0.0001614839721693854 
-0.0001628780650373643 
-0.2351069395489073 
-0.2813868293548693 
-0.0002075922784455468 
-0.0001614839721693854 
-0.0001614839721693854 
-0.0001614839721693854 
0.02299120261862786 
-0.0001614839721693854 
-0.0001614839721693854 
-0.0001614839721693854 
-0.001041829362822962 
-0.0001614839721693854 
-0.0001576198090907131 
0.002123505387595886 
-0.0001633169525999653 
0 
0 
0 
0 
0.01133516004601399 
0.06043869481732037 
0 
0 
-0.4922188329969621 
0 
0 
0 
0 
0 
0 
0 
0 
3.142570106294445e-06 
4.329484901006564e-05 
6.164197576816009e-06 
0 
0 
2.469612290481563e-06 
-1.128666923962813e-07 
8.169807588376111e-06 
0 
-0.0002589267442067042 
0.04868431180577117 
0.01529584380482173 
-7.901179776408104e-05 
0 
0.0001048927175982789 
0 
0.005073760447753093 
0 
0 
0 
0 
0 
0.0190512536793773 
0 
0 
0.0001527899944923604 
0 
0 
0 
0.08347469380470644 
-1.378360018718541e-05 
-0.001573067527160515 
-1.378360018718541e-05 
-1.378360018718541e-05 
5.442243603340452e-05 
-1.378360018718541e-05 
-1.378360018718541e-05 
-1.378360018718541e-05 
-1.378360018718541e-05 
-0.001573067527160515 
-1.378360018718541e-05 
0.003668742029037998 
0.00360396812566613 
-6.071809543472104e-06 
-6.071809543472104e-06 
0.1154729734815921 
0.008943065629844815 
0.00519659775662464 
0.005198409442479721 
0.002389613835889117 
0.002389613835889117 
0.002389613835889117 
0.002389613835889117 
0.002389613835889117 
0.002389613835889117 
0.002389613835889117 
0.002389613835889117 
0.002389613835889117 
0.002389613835889117 
0.002389613835889117 
0.002389613835889117 
0.002389613835889117 
-0.21192295531128 
-1.880579556738243 
0.002389613835889117 
0.002389613835889117 
0.002389613835889117 
0.002389613835889117 
0.002389613835889117 
0.002389613835889117 
0.002389613835889117 
0.002389613835889117 
0.002389613835889117 
0.002389613835889117 
0.002389613835889117 
0.002389613835889117 
0.002389613835889117 
0.002389613835889117 
0.002389613835889117 
0.002389613835889117 
0.002389613835889117 
0.002389613835889117 
0.002389613835889117 
0.002389613835889117 
0.002389613835889117 
0.002389613835889117 
0.002389613835889117 
0.002389613835889117 
0.002389613835889117 
0.002389613835889117 
0.002389613835889117 
0.002389613835889117 
0.002389613835889117 
0.002389613835889117 
0.002389613835889117 
0.002389613835889117 
0.002389613835889117 
0.002389613835889117 
0.002389613835889117 
0.002389613835889117 
0.002389613835889117 
0.002389613835889117 
0.002389613835889117 
0.002389613835889117 
0.002389613835889117 
0.002389613835889117 
0.002389613835889117 
0.002389613835889117 
0.002389613835889117 
0.002389613835889117 
0.002389613835889117 
0.002389613835889117 
0.002389613835889117 
0.002389613835889117 
0.002389613835889117 
0.002389613835889117 
0.002389613835889117 
0.002389613835889117 
0.002389613835889117 
0.002389613835889117 
0.002389613835889117 
0.002389613835889117 
0.002389613835889117 
0.002389613835889117 
0.002389613835889117 
0.002389613835889117 
0.002389613835889117 
0.002389613835889117 
0.002389613835889117 
0.002389613835889117 
0.002389613835889117 
0.002389613835889117 
0.002389613835889117 
0.002389613835889117 
0.002389613835889117 
0.002389613835889117 
0.002389613835889117 
0.002389613835889117 
0.002389613835889117 
0.002389613835889117 
0.002389613835889117 
0.002389613835889117 
0.002389613835889117 
0.002389613835889117 
0.002389613835889117 
0.002389613835889117 
0.002389613835889117 
0.002389613835889117 
0.002389613835889117 
0.002389613835889117 
0.002389613835889117 
0.002389613835889117 
0.002389613835889117 
0.002389613835889117 
0.002389613835889117 
0.002389613835889117 
0.002389613835889117 
0.002389613835889117 
0.002389613835889117 
0.002389613835889117 
0.002389613835889117 
0.002389613835889117 
0.002389613835889117 
0.002389613835889117 
0.002389613835889117 
0.002389613835889117 
0.002389613835889117 
0.002389613835889117 
0.002389613835889117 
0.002389613835889117 
0.002389613835889117 
0.002389613835889117 
0.002389613835889117 
0.002389613835889117 
0.002389613835889117 
0.002389613835889117 
0.002389613835889117 
